function [Y,Xf,Af] = SOMFn(X,~,~)
%MYNEURALNETWORKFUNCTION neural network simulation function.
%
% Generated by Neural Network Toolbox function genFunction, 10-Dec-2016 10:17:26.
%
% [Y] = myNeuralNetworkFunction(X,~,~) takes these arguments:
%
%   X = 1xTS cell, 1 inputs over TS timesteps
%   Each X{1,ts} = 400xQ matrix, input #1 at timestep ts.
%
% and returns:
%   Y = 1xTS cell of 1 outputs over TS timesteps.
%   Each Y{1,ts} = 100xQ matrix, output #1 at timestep ts.
%
% where Q is number of samples (or series) and TS is the number of timesteps.

%#ok<*RPMT0>

% ===== NEURAL NETWORK CONSTANTS =====

% Layer 1
IW1_1 = [0.24178633272214692 0.15493408124054842 0.23612504178814223 0.0045256182211202978 0.012748712401920157 0.08863248005574563 0.37937362795797153 0.15612161991136869 0.30537664832568479 0.071879061486941148 0.16243568805818373 0.32999047034150525 0.082108767890532536 0.16881906280316969 0.60913731337233834 0.39359156542128915 0.0074402169716277743 0.22920302333763787 0.0086213869738671987 0.0040443370674833898 0.0028071179492909159 0.0024999704665222095 0.15518955979715418 0.39681645309618607 0.34111268490252256 0.83988519010185869 0.088191934867215341 0.15627473320421259 0.99637713660300453 0.2364282663645649 0.83797416927376622 0.0028137391378518957 0.0051556873357080785 0.0098810620931575662 0.62110278003404618 0.0084609242058000939 0.0032231279521743135 0.0030666591014973806 0.47016475397414642 0.15737115832028531 0.30334334568888932 0.0034380262641474195 0.69229800186825563 0.24007244299919922 0.54201214655919128 0.15433234087066205 0.15701209983753681 0.080162626888237179 0.085086688977998634 0.010223358390895505 0.45893298149638273 0.085779538456881271 0.16966903821309048 0.15962996617094172 0.078348150383642665 0.76830269598216472 0.082574801013429927 0.30750630259354095 0.0049842211410595907 0.087464008896176212 0.22828964213398653 0.30560727998949794 0.45928690909031766 0.15543153646872349 0.2312835928837132 0.15841692191480095 0.23398314036906859 0.55017606388492735 0.30839592629441254 0.082152991732652864 0.082993352587594146 0.22759267911230324 0.69351860615840932 0.24628336573246973 0.16092606942162449 0.33451449717951504 0.078813087764802711 0.0019420194412632309 0.081940987505168511 0.084769722734209574 0.088488981020948029 0.0019408315214597021 0.24112017787289333 0.0031750010355027719 0.53649506653279677 0.080579871900168534 0.078694528892837179 0.0026935824236224929 0.0040050129780211351 0.99106138048660752 0.45819737200209287 0.46257731831674459 0.15837081573359185 0.080701937540010052 0.61562584821442567 0.083937756072216957 0.082024574145084489 0.078083569610899267 0.69169526720209695 0.15869752585634442 0.079419720047194234 0.084463212776464736 0.23542894828423838 0.67275223417111052 0.14381933414006143 0.082969335835367156 0.0065823475092198838 0.0086353110809332667 0.32244171096317187 0.17088089506371257 0.39608036368996957 0.53587375014589833 0.15905142970451752 0.69071115028855767 0.53249975362037172 0.5370545424499773 0.14895306600731592 0.68684063885570168 0.30573205497849887 0.91639054090391081 0.16301458928331705 0.45699667547609057 0.30832854101598778 0.61979878268407695 0.0091792431927530064 0.43618868382975851 0.23664786649270089 0.0068770849221633009 0.078803293323625068 0.16352331700735645 0.91946391968724273 0.3184425257192266 0.68368249421719229 0.22674420464279327 0.16338638319798596 0.60972165370455067 0.69219011574718237 0.15401517439767085 0.0028386617913967291 0.16604708875482352 0.15197393186050187 0.090235917398972604 0.24322728670825361 0.31766160074676703 0.1524782923742708 0.0095738638395000616 0.4616730029158892 0.15904227208414082 0.21934041373105953 0.15928859320597583 0.081981037735091564 0.3866464277061985 0.00844089666754466 0.079160927257494657 0.079104583044633289 0.083344456520161661 0.1569877535227979 0.30976609614621897 0.15291275193761372 0.0022698955157211009 0.68976840437056919 0.31397556954559513 0.91527880583447385 0.155689513014409 0.15292499048809144 0.0039131305262421973 0.0039350068420204486 0.23816643233848556 0.46089390351080795 0.82629846129701756 0.76851576661529264 0.45886827558261395 0.1575617890551152 0.0062636706791587317 0.31386356197329857 0.0831098638586871 0.47292431551075709 0.15623211265476056 0.40180269954311704 0.08028455688722437 0.0060914284524099024 0.15965667613032378 0.091859824380476754 0.0026966229306905109 0.45356596834086005 0.24274225897842289 0.0048352602755142452 0.0027471162940464712 0.0064889033443027919 0.07916622786144463 0.23717797773929222 0.0048383634592475506 0.15242636056250985 0.31538035079990778 0.15802357094043723 0.085171086480865604 0.094959926346920756 0.0087410054305871229 0.079692636838558248 0.16164175136430792 0.91454565194962067 0.23393911901727776 0.23410960397777281 0.086038749456404842 0.15360277533823627 0.0648750138294511 0.010178814893339464 0.21070300192704472 0.3803811170350152 0.37518935385019175 0.29186719753062007 0.91297233427471358 0.0025296337575194407 0.38089612942862972 0.088347508119167001 0.1563447264095966 0.0067148536777715487 0.080005110218608205 0.078921428163474291 0.31543063873908495 0.012152892727116416 0.077575589926536126 0.39444870339511146 0.15295198183032735 0.0036972674059274485 0.45741934032221709 0.083937901853344002 0.23582971241563314 0.082201146625621391 0.23578843757711573 0.38448836116359036 0.15825044289160578 0.1585073108083429 0.30669738115872425 0.24152448511019439 0.0018960716422917591 0.077260398297845478 0.99505327564621093 0.61208074592593142 0.0044958300570198308 0.0050286775384574076 0.31418081680725612 0.081425689748067381 0.1546828298607133 0.53491269683845433 0.39103871774159027 0.16334894673161723 0.079360190358539584 0.30231872102354984 0.082427348095376884 0.91703333977709856 0.0053204251229292806 0.079874171268608934 0.0041562722742688619 0.08020191509401528 0.99687032065930126 0.8410599402241079 0.15752696066521915 0.61476844815345644 0.98696019907779498 0.45496255952723857 0.91564489308907193 0.081659454848441893 0.45627925995124646 0.0058503055269563242 0.079618977722003229 0.0058039827612010771 0.3796930180033839 0.073233048467651621 0.15916992615404194 0.084181882260793692 0.30762279571504225 0.2215475526765055 0.086224214135707355 0.15579195116970462 0.75370565263066924 0.15822951522369252 0.0023687263568834003 0.14554005827279162 0.0077857109342583022 0.011567398223078907 0.082062096352387481 0.084098292234234331 0.078625953352390587 0.22280529849077266 0.37546561388492783 0.53803190060220119 0.45408902817413549 0.0055904252315255873 0.01000034598092079 0.22921033300734969 0.0032885265069792381 0.083274451715532369 0.16190974735894814 0.1532318054691231 0.54727716027919904 0.15791370807193178 0.15956258766951584 0.0038564678763778771 0.0067177645128923442 0.0045490467345465921 0.15508251434494894 0.085366913359454275 0.085128312479982815 0.16036144146031672 0.006073814968769381 0.15885949186466988 0.15747325595436173 0.15888857118612992 0.16245189852736788 0.38030645320613821 0.010793641855577324 0.31791168731759406 0.0055954717138637774 0.82792965319290723 0.23667632561362978 0.082001244501815646 0.15255228272734633 0.15694563712412826 0.004471822291991466 0.0079644886657404736 0.15864459395201935 0.079241078055024977 0.38401717810111685 0.15722969780142645 0.0026577127448301294 0.39205163456726666 0.16059396109909829 0.0034428489269091806 0.15448833787589769 0.46415436566421481 0.82948241858032223 0.083302445119098956 0.0019632886444268783 0.76820076599077813 0.69955542089925438 0.084905487677372687 0.31035854288942599 0.080821124822294352 0.15686830884498526 0.23116498571764504 0.16325785602477597 0.15618867735563255 0.23344447847057867 0.99434650803522562 0.51781446674286813 0.0059218124770180512 0.22978733344736607 0.45674795829791781 0.15851840413498039 0.83593652338289548 0.39206447581330706 0.15957171363412453 0.15556050624506074 0.68496526835813643 0.15526138334532427 0.92833620227262703 0.081172696892914564 0.0023985759019465808 0.46238003752275336 0.47127286273675739 0.0088123924805830738 0.83832777074632236 0.0067245980552531077 0.083454971638237535 0.75311425433921841 0.004981953427813956 0.90179668491847353 0.0020315527401084006 0.30840252444402116 0.40360197032422418 0.0094959121594931119 0.30875484126090724 0.080819025504444836 0.0810017453152303 0.0022641447177014023 0.38720902239365973 0.0020461491657109885 0.0018490908561729614 0.1534381051698992 0.081814501034614739 0.23763741922145587 0.0021347118636658069 0.45607993449791584 0.0035190060182969259 0.0051598351116225677 0.084936377421654094 0.52640689068456747 0.0043402089878662366 0.083674581575405305 0.76089304359315491 0.0028700597799442848 0.15526918730119676 0.22451878129361513 0.084112628005618806 0.08513618693840877 0.45801858104288562 0.23548277533778605 0.39264652905473207 0.080262707041834427;0.50675906708366181 0.0018169589390323979 0.013733744319435998 0.25941628547258955 0.015322016113903355 0.0051446912800547787 0.0046310519965429417 0.0039799486162875623 0.0097864551931945033 0.013006546137701386 0.02182764446061497 0.012339949986310137 0.013017075304962789 0.0039848254225782597 0.48585446404949517 0.50672593464892912 0.47016378769111988 0.25857663180322588 0.0031048987738343178 0.24960871270449328 0.0010587885745556276 0.0054483613208328044 0.0041287640519619903 0.53970998132011239 0.0092351983525892044 0.011493166259093118 0.013272091448206978 0.010801256037340752 0.27210670763049738 0.28824316738838768 0.0082743861489577627 0.0039437979255447352 0.73048279590255016 0.0089233032410625628 0.49886870899187985 0.89075060822673002 0.0027568833276659464 0.25033741179052754 0.030363186806102498 0.0025261181506445246 0.0043378392737327461 0.012860459874420856 0.027504753663823506 0.012615604899372912 0.024683996614039742 0.0079426757254171809 0.0044470510425858598 0.0076298997877500977 0.010281798528698167 0.48253046293933949 0.9491732171341748 0.013932130108188633 0.51161334480914877 0.0033676779105004198 0.013170673103336826 0.97628690801158147 0.010998258896496138 0.25157140862826738 0.012291213334148208 0.52282343302542311 0.467201557089995 0.0055488487586025032 0.013553470435629275 0.0032608244977340903 0.0068313394051378457 0.0059958591336628977 0.0038662078975324576 0.010164618247181725 0.70405714975679656 0.0053457696155048027 0.2124731276876477 0.0098610387137002768 0.0087303619910670902 0.0083527801322989675 0.23867307422949069 0.48775274066615215 0.0029204796393897982 0.49085129036408459 0.0069268540246461945 0.0067410775700439962 0.97661817832704334 0.001879453679768489 0.011053271811391492 0.25177974196132408 0.24890035956297185 0.21442422309678244 0.24270607485909554 0.0041253270371318139 0.0038710909380858046 0.52427666549670882 0.47914869373214442 0.0291276808869953 0.012292814425002768 0.48777595578247468 0.96305884129694663 0.0045956298103134001 0.0038516122831149875 0.0049090218227476664 0.0037601038910964881 0.0097469050271769744 0.25636795704700904 0.98010772842588412 0.0043125043662086276 0.0056956646272824209 0.0068582342717442013 0.0043101049333339721 0.0076501241674680198 0.94259221723541242 0.0068854887626801798 0.50121727747677025 0.012433826146276319 0.0060690261170845599 0.0032682000389565617 0.0061796764242515352 0.0050335357986100535 0.18866665971773994 0.95860103726095169 0.98570566430057538 0.96559098381859687 0.95819099631878335 0.018310986341871782 0.0039786864959964491 0.011508525631215525 0.76097075532978797 0.014263349626504246 0.0048208905489710071 0.25985255395880602 0.013327002885831257 0.0029952261148165921 0.0048036637508583283 0.25794543074786047 0.50286751526547024 0.016996807314275199 0.0052299522509020721 0.018818644990787475 0.71774528997439035 0.49842837765417147 0.0070687302354282182 0.25809389874727628 0.0051544830126743612 0.0065030107500444545 0.004398147387192239 0.012430683232207867 0.28105886158557397 0.24812051118008122 0.49852484662429486 0.015043351042144068 0.0041226061562952433 0.25859057548920716 0.014933696454295185 0.0037446823908451493 0.004844070414348616 0.015794122007497718 0.0058207571794628068 0.73844666798750036 0.0061640928373732388 0.0046041600244581572 0.22656569698624274 0.076289691666942258 0.0026013295950596694 0.026753762045041179 0.033651355230462948 0.010844219483933612 0.0050463332562878348 0.004119915767004702 0.0039496664224498382 0.0045798074142669332 0.0030774867541018196 0.29129948605245543 0.012367789159371013 0.010084595543299893 0.010627292842482145 0.48142036273138988 0.017151862549941048 0.0097691377952458872 0.002068027434455293 0.22917041831256918 0.48799640423213303 0.96967853685402938 0.0026643566924995339 0.47790510962904154 0.53275868733887355 0.0077673848520820044 0.012089680684909307 0.012732314719476067 0.0047493302446030283 0.74006499780746859 0.0035515592011311223 0.0028751566505111461 0.0072259508361609201 0.98095918157442363 0.0090194523206695611 0.47659639923916969 0.49714514714148828 0.045237601582672114 0.0027910887453875995 0.008667649225249343 0.054645388364171682 0.0051881280104969637 0.019169793509771427 0.94974032781049389 0.22483310434618736 0.71899459045412994 0.25205923607966602 0.0019883296010889621 0.46386929853254028 0.46345796519657834 0.74989203695580176 0.2450885238378368 0.013553161229490325 0.0089924289568760786 0.023107218498531229 0.0076482188498118 0.30346987591640362 0.49909155187445053 0.0027540152207020828 0.0060122425055027144 0.0041470635109195127 0.0036034351033205477 0.0083622156122012525 0.98973032249822734 0.0020290320332884181 0.49587259272010886 0.014684218803855498 0.0017235349937741089 0.0082072508923911949 0.2273687890779183 0.93740662460025237 0.45766081112737866 0.0078510230294062677 0.75512844527272172 0.0045613437994207993 0.48247419934244423 0.01530402180627596 0.25778854319052824 0.0093980861676569282 0.0095935282684635366 0.24185462536326652 0.96604473072394947 0.0028285634846814834 0.0022944886842694188 0.0097993036222714502 0.47865564476690159 0.0024331226614315144 0.017960387059457985 0.2538769242186194 0.24929949897605985 0.0070085141565813646 0.26504254950648232 0.50573756499470501 0.96150496556803666 0.0048771220379820466 0.024997311035770745 0.23904160479698394 0.011437861865052634 0.53045720750652359 0.006203190272752207 0.0064237732098078003 0.25517567345291731 0.0076306068348838746 0.014398615613639337 0.7325987391194817 0.46587854671970252 0.0026476614770946589 0.21639827905598039 0.0060295099102364511 0.0050341006861717033 0.0047955609086056455 0.24053280535015109 0.0057839599756537192 0.0043677812085988104 0.002096101468022311 0.49126087307777283 0.0071403542741830337 0.4446336462204481 0.0098301540752598615 0.005813838143442023 0.0099118611530021605 0.016992526012601816 0.0023851500024399002 0.0072899693536202497 0.45727917680259905 0.0078258517344394728 0.0032412091969795378 0.0050355598336437879 0.0040134606209471018 0.4843536706234321 0.97026291339589199 0.0070540983237910139 0.50423194489568368 0.011362748314119389 0.48311315122005649 0.0058921040735773591 0.010332779468822958 0.24792453915022344 0.94249409600219614 0.48704166390695747 0.0033249229564923108 0.0061299215513283736 0.50102348605838443 0.0031265949683581032 0.0074825844754215672 0.0041689300018437191 0.0055903743865504067 0.73729857711814328 0.0068764737200374057 0.26326325831543135 0.0036304056721594251 0.00721749937235165 0.96885654093470586 0.74726230855664133 0.94111924837653338 0.0073964693482017176 0.0025426085481784245 0.013149947884638826 0.0073889205748088891 0.0059727454081681397 0.0032809001851258897 0.0053145400172827824 0.011282232945522476 0.010911747985733295 0.49428128420606071 0.47523889308830258 0.96989187828319645 0.0059477638008676795 0.49263340842688952 0.0048640784804734605 0.26475159621475941 0.0058812836025122529 0.0074486433381454522 0.010583702201127504 0.73439547494717206 0.0048418802285965772 0.0038554669526961478 0.98425669207348954 0.0070155712099420429 0.27020422682387313 0.014792601835387276 0.0028698447560347915 0.0068390848825256936 0.96700486109274508 0.0071809608444273528 0.0024356703966308957 0.0041529246544974021 0.50440353025258178 0.96310344244980928 0.0032307060986875328 0.0031018721211212822 0.0046997429923002964 0.95603271794441402 0.72494078355268943 0.75517366562392463 0.27314528787041492 0.50729073215840437 0.0046802532705400666 0.24623244812563136 0.52184902654903609 0.48606788461253853 0.011090107295800275 0.0086997014398219382 0.014120934639248166 0.015221187262541819 0.98451968654743061 0.0088684755293231363 0.010170638305564703 0.25405368464447259 0.0050527938430787282 0.006672472996166379 0.035181720965353734 0.017574309376946651 0.47851599726276173 0.028430918944130714 0.0065397199906791562 0.0037349199663010649 0.00226454193706584 0.0026623046135329457 0.75387449834531239 0.27845568573720736 0.003176828609806657 0.0066037357780387336 0.0025046168875626257 0.015700985806205409 0.48696676028135677 0.012005916915023042 0.74159666252170053 0.0028162127334040738 0.0031362518694787421 0.0078747851668229587 0.45591295417409322 0.26503307877598881 0.98594906088263579 0.25695195440958385 0.0040960192982854981 0.0050305816489131273 0.49506977308822631 0.0047604935674887567 0.0098991364899105663 0.0045273632230739564 0.02335516635841306 0.0051048844071709216;0.020378786597809138 0.0049215247266293999 0.066974032569745198 0.27436992834335339 0.0095826474869596806 0.0060699169569904754 0.0069137487892948274 0.055453727499722751 0.053353030493069636 0.29714470197819187 0.43435291551212196 0.15645290063041833 0.037348227726125498 0.0060263256921104019 0.29599020736980802 0.93067759529095451 0.12098101507848774 0.1589111252578321 0.0057820678772387678 0.39909503243863553 0.0051105120677988084 0.061777926746087536 0.0045128868010697997 0.30589299015686722 0.055517149131609649 0.2330385892751197 0.39720408586430883 0.006083177978280928 0.12104257789044785 0.20284962911279961 0.15882723286197814 0.0046529762466747671 0.12297067296308155 0.25998917452337361 0.54827679357682535 0.011497676785959018 0.055511332413191637 0.39493218925602291 0.37383118102956842 0.0041807233206258591 0.056592041705060575 0.10562804930176371 0.48481357787371315 0.061319758031688043 0.33636266396663295 0.0042118193401756701 0.0042258077127220808 0.0085239538020615187 0.007247770942444119 0.35735469924311258 0.68131028344040412 0.008296762918187043 0.25287283564054269 0.055791321777107036 0.059664852482556714 0.11053735832784661 0.012876513218586082 0.14643873085430822 0.15399571209257593 0.15823086419104074 0.20892512466809043 0.010149975571864485 0.25176083609970962 0.21051276673135472 0.0050072316749839446 0.20037249969131299 0.0064599711345247578 0.19220278181713321 0.50438440449467881 0.10221857937726497 0.17839033369952809 0.012256132148586186 0.005531450705181332 0.0096198487599207985 0.065259030986623154 0.11096520961895642 0.057922133167157615 0.053632952996966687 0.3052735731682486 0.40315866448092141 0.68910412161679191 0.0052944905132064173 0.25366736273911755 0.22450829467208672 0.058850909760205058 0.0089428868907418541 0.19209366954256488 0.04689774284287352 0.0052684794526314397 0.20441635624878277 0.25214200549861915 0.34473044975435174 0.067909160619418943 0.10304694049068144 0.011780838439412415 0.008895196007659709 0.0048563699835334527 0.15401467793664314 0.007382159460260735 0.0093694363263611292 0.35743798316078423 0.060725464088371026 0.0066638198872799852 0.048336151450760825 0.0074397238312133261 0.14349867337853586 0.064707961538174902 0.0096446479286052215 0.14826491221181384 0.3538939062281734 0.151496610291493 0.023367140326977516 0.0077582122465047563 0.0046748492337687301 0.0078800769138983595 0.057112322292764729 0.53827573812576601 0.36983012294340767 0.094022801819894891 0.030833571530955398 0.0067269171857643022 0.005978492319772627 0.056518442527414517 0.41293420044900192 0.011997140040550176 0.0096327309104011077 0.59163474164971297 0.25651999380134444 0.0052870955804782934 0.0097452891823331198 0.13496265013974468 0.28420668039637798 0.011502594145825655 0.008473965809890625 0.19885022830727295 0.0077751609776789453 0.94528581239036946 0.008358626322875741 0.28318631955668228 0.0081644599039426176 0.0065066543163771378 0.0033248395084355237 0.33314755845683935 0.0067979292725729341 0.25967900382046127 0.29092381229553116 0.19773731261198041 0.0053356355570748672 0.70443153326977537 0.0069262066423050883 0.14141449080465263 0.0080681750543018446 0.27521454673190349 0.0050273209959586463 0.15191011025213635 0.0058484755899757494 0.05044948219048434 0.10788568994681019 0.055311980326977664 0.0079068026681478783 0.38326654187542353 0.49398386536401073 0.43763884938594838 0.058958762731140951 0.054037271515260325 0.056242198749250946 0.057613840628916994 0.0601851469271103 0.88262910917226134 0.0056351579751302682 0.15219088316114252 0.53568080690814035 0.74409309416103497 0.35036370584068532 0.058823121359381662 0.10700008171023823 0.43061982652530872 0.27576347023131348 0.0045724126382242119 0.0031084687608480713 0.0074371022125094381 0.63418241577197476 0.0091124733163460807 0.0086152961864146213 0.053570106478741837 0.11202409193373998 0.17818118709319164 0.0053985136862682572 0.0099401289884938175 0.007649689227930254 0.12299066564930347 0.058646440707882025 0.012494264242884006 0.0070546136050139725 0.55979451957139181 0.0036615208306497336 0.00623145887743096 0.21650838059245603 0.20050678027928351 0.0051903468450217932 0.6454155033420057 0.069378288622041359 0.057816386326052349 0.41701879663861774 0.0040430836566981649 0.24424240813607362 0.49498495673851267 0.76106996099467938 0.24462700914269928 0.29568137804610417 0.10323761163393168 0.28257584386356954 0.0036456106314554358 0.10441966414984769 0.32216022451461579 0.0069078672857909333 0.004883301753424627 0.0044458614218400331 0.0063237963282387066 0.14714170600357421 0.57841277613332842 0.0061952698101570818 0.2076608183831615 0.0072963678515418733 0.0088136313900773009 0.25164592922434981 0.062928825679298681 0.29596613796357779 0.0089055801316090082 0.0088852174801853211 0.72971225381978044 0.0077354578253356152 0.30008227376406532 0.0052734732361504515 0.15149561846695461 0.19222409721503109 0.24826232806886628 0.25249894892931596 0.018006972163856515 0.0029563771254663873 0.0072403330794229967 0.0077141357938908858 0.11386209310903544 0.050535371479377637 0.57065202717168906 0.53449012022948428 0.05398434777447058 0.010758262730100956 0.72125637433734935 0.010195736068514708 0.34721090511085501 0.0040809076006255275 0.019614039744962307 0.01130147102343294 0.011160897777369096 0.73887328339819924 0.057898552758407107 0.0082431829816594585 0.0071913405256477684 0.16129488187916344 0.350315265472457 0.20051710281354485 0.057729070906134348 0.018007121962498207 0.10072006968800454 0.11004636381643765 0.1686571393969952 0.005068362907679703 0.15205471005686441 0.0067939055957103225 0.10058317210323187 0.1763704926194514 0.20364335839544859 0.18564665244232467 0.0074949179917021356 0.16519274716727123 0.057107159641393276 0.0074957875944526584 0.0069153972130743353 0.0069467336598274679 0.059307895102997214 0.048055078620184821 0.059077081639131807 0.0059974222163471386 0.013831881023900414 0.050017109405894183 0.013349225392546335 0.86366487112496559 0.005217132110883693 0.44179478184270593 0.057218186205930784 0.0066494580663794128 0.0039274429790388862 0.008617181950653913 0.012097255511098255 0.64283901233820018 0.1952738031903028 0.012106494849225668 0.16129736670555098 0.0094017034065669303 0.0051539257795420301 0.010016462560134934 0.16485802151201626 0.058869620166837111 0.31365376628635244 0.11259597040747711 0.26898424040898927 0.006308908035307802 0.0061059623125852523 0.13828016586011857 0.43267496981427572 0.10502844591237667 0.10164878502470462 0.0043210409258483823 0.01022642658666718 0.10514025719212902 0.057944068143041136 0.0071188023221603466 0.0067853067006703556 0.20656109139349374 0.10752543183229495 0.10755760853425449 0.16753206851040944 0.86333583123043667 0.0066950478140289735 0.44658180377003137 0.25110683376833653 0.58644393145940144 0.0079332109092990506 0.10780348661772857 0.05940100003950103 0.011904404996136982 0.0059487770180733975 0.0076670415707544631 0.41858250631430327 0.0072309545343522972 0.42090381521828324 0.20477762301078933 0.058073162042893013 0.055765898828985076 0.063117600772321134 0.0054109090179033717 0.012230092761744662 0.0035368820723370871 0.18048630738931415 0.0138900412132808 0.006318883871746791 0.0053204486357677303 0.0056613891343690109 0.32494791860967509 0.45590522610394646 0.40040507553434734 0.62513116575637118 0.20692613343291855 0.0053459803703003175 0.30786135933812586 0.15847814903034302 0.16312028316340713 0.0061826631094638249 0.19251093954050758 0.16065374480289463 0.063840396258283388 0.59845636054782669 0.0077761177108944344 0.056583344843563393 0.32993518378002451 0.1538048527771616 0.19567948926416451 0.7343616214741755 0.012410100444138615 0.40816988423560441 0.058717368273049513 0.0068628666701838351 0.0068738220767338241 0.0062424977845065592 0.0072007441246850698 0.26469540514417461 0.098119773932792059 0.0036387639759729654 0.0052287421846482132 0.054785801653670051 0.21082906916741778 0.63784087030952386 0.0082199903131828771 0.41211558194280445 0.058094913201027713 0.0041162698558408735 0.0091509091259866695 0.42241079530011927 0.061529049335650822 0.7811687965373646 0.011289283676229309 0.0069957431556544741 0.007333910233513298 0.62619125392015706 0.056832220137826107 0.4538939212661493 0.055315788074816651 0.086722841885175803 0.29384438102620936;0.99320084394250463 0.0022230994141385261 0.99001755478586406 0.0077634796348538121 0.0057180354366061208 0.0019352427726171901 0.0021513223746704637 0.0019114513638171116 0.003931864380955807 0.0040172846090949631 0.98589145180452886 0.0060021080961239759 0.21532668945923547 0.012937877239218602 0.0053201877459007132 0.43742491115641657 0.0081604451865189311 0.20581049195361997 0.0048411056088001492 0.99313339534034351 0.0027063960752581858 0.98609862822070671 0.0026156734790319944 0.0024521705136335511 0.79479811257271638 0.20772421246178396 0.0078053217125751591 0.0027198323080228947 0.013553978281027411 0.0022349217138594585 0.20673721007845691 0.0021631631731991716 0.0029351146939858843 0.99379538855272265 0.59801576574422777 0.21114278875736797 0.0055167514546215664 0.99327365177489346 0.0062562052137724077 0.001440643931843438 0.0032450120567572086 0.0031433543691676952 0.0056870202046240999 0.0061755153379129506 0.00954482764224324 0.0012870729993100598 0.003116453781346824 0.0014434559588190729 0.010319510532631795 0.0069695744744895805 0.99809798358792101 0.0029304334109939477 0.39497975640027583 0.0036815902250780627 0.0054157049543834624 0.0013766856508852301 0.0010984194775299572 0.98960570330351905 0.0018851896713651655 0.0028954824287270794 0.012069042722631132 0.0066606952831996403 0.99500167441640941 0.21319266714333604 0.0024758583581653052 0.0065248449477299485 0.0024093710085342766 0.0030706067597944947 0.20700722310852318 0.0024186321194356146 0.00924696618216065 0.0023908335103944071 0.0031746023010304474 0.0054984056505484203 0.0098292924204742404 0.0039803820966717602 0.0047661585202229692 0.0018209273971692835 0.21844731853647184 0.012045833138031706 0.79239715005205835 0.0022385698493210811 0.0015597327080697865 0.0071009028965812225 0.0041303294351458684 0.0030869363301341359 0.0095614534865791044 0.20421886343381163 0.0039007778148139965 0.20480072958708301 0.0021063973586481406 0.0050864930384825237 0.0026493812891291942 0.0024757802456785321 0.0022400716906838527 0.0013733871705616479 0.0011307454016657096 0.0088691167167656692 0.22141342636962064 0.0031524966585885195 0.60816635965549326 0.0025665552928771031 0.002578011750420702 0.0044539318155297665 0.0018813764520518072 0.59645660699606806 0.0013912787803354173 0.0031928454684269723 0.0075769453400137722 0.00056121843090310133 0.7936317000404286 0.80244684156016932 0.0031026708760239956 0.0021676764619626612 0.0089208286096286067 0.59022669984777787 0.99780422658082002 0.99189293953671354 0.0031966282162674566 0.0038100660064689868 0.001188633144668462 0.0031025679817399312 0.013534601127322977 0.0034408853176305142 0.0011510612136401903 0.0053876381011959953 0.79577033902230587 0.80434176529430346 0.0017134299366028248 0.80651840481944348 0.013162570195247188 0.99017119793620434 0.0059533534505976137 0.005724789313382374 0.0039167908580358011 0.0024870209038551456 0.99872807012676168 0.0052562149071278081 0.0079714723463156379 0.0025330520978842901 0.0014005247338365729 0.0013705027457089499 0.0064751472604529228 0.20033302562710456 0.0092322921453516331 0.0017397868561210507 0.41441356938453527 0.0034514614430174854 0.99962400580655553 0.002586131557916089 0.0043573186831068903 0.0026794123407727086 0.2149006716806405 0.0035793781801640103 0.0039337144797252374 0.0022474470614618496 0.41901253502280011 0.017529782963763757 0.0076304718741605536 0.5940853585781537 0.20874224962832338 0.0034124169122843363 0.99566702685968544 0.20965160822237464 0.20945849106607828 0.0021596240356730433 0.0013398138928692729 0.011215114265843193 0.99333483315752891 0.0031499642394674883 0.21090473649668987 0.20857010741603568 0.99736144225194634 0.0066768342290412048 0.0085986807976356789 0.20415855948144693 0.99456819413518338 0.0038339250195751399 0.0019254467087386599 0.00054111217575163271 0.0028834513215132327 0.21961841793737041 0.0086038369112596009 0.0038475934880629241 0.0015535536668366413 0.0048727737285876888 0.0034188912736501879 0.0017870939325272434 0.4028815718447204 0.0012795519302742195 0.99449666507259404 0.0022391134420626036 0.0036035218948231862 0.0036528843500099935 0.99461530316511926 0.0006181452757057067 0.0031619607208306128 0.00088998951241661228 0.0013440677999811245 0.0057693230203028911 0.99682506667732895 0.79259659243210334 0.0069228105565762761 0.59928813123992408 0.0022621629231981549 0.011817973368818116 0.99581740648362094 0.60867082665950067 0.9961621239929116 0.015499777230675821 0.99267711549678617 0.2027786605820554 0.0025230598453085343 0.00529049054830554 0.0064260077052577342 0.0016932261905900584 0.0024562097155566322 0.0057148248856533357 0.0013486373432748753 0.0037961734878965351 0.011673266697113792 0.0017958303013748211 0.0041266577366043762 0.0024644668431634356 0.0023985675561744085 0.0029809480203215628 0.0037861678235814457 0.21608245297754361 0.002352576581692546 0.0011482071431122508 0.99577550940750725 0.0032140458198243482 0.0087365329069015226 0.0064988489874644546 0.0049721106259374192 0.40942148593444339 0.005579382741554507 0.0071082748548984692 0.00086423729160069391 0.00092000446295130911 0.20525749095871115 0.0013433374201965085 0.0024362388876333022 0.0028142659209840328 0.40098585940932441 0.99797613655775574 0.009775351596199711 0.5944769037860459 0.79591073086135489 0.7872934029088936 0.59373335516554115 0.0017816345306632306 0.97550420424044981 0.59854137753617043 0.0041167814370257697 0.1934788515802697 0.98667925522272937 0.0036399029075751058 0.0041575778381854247 0.99346100721616137 0.99069047030572654 0.20997904831448383 0.0043734395054419381 0.9966726095042161 0.79239043246878682 0.99227968718267345 0.0069256457552737101 0.0040882544616479884 0.79608378865207041 0.0026636932198136056 0.2152839358991249 0.59464555356296689 0.0012988650059817296 0.99298547794604164 0.0012759626528800665 0.99551907800352946 0.0049969807678831102 0.0016854527371949739 0.0048727111713979419 0.001336418528610672 0.004449771323313618 0.20190182491013869 0.0040331300414167843 0.0020526459535125056 0.0028252525018276713 0.0044935751556800831 0.0012387934915355269 0.79864379722468315 0.002428491336821422 0.0041817005386593055 0.0024492047735623895 0.0014229044357886537 0.0014677429997261311 0.014800876794395682 0.0058294462923297466 0.22010491588785203 0.0090349840136437782 0.60367569012840427 0.0017077449333450529 0.0016002369397045213 0.0056822575584942435 0.98513795102312585 0.011317847884781676 0.21202900124176979 0.20903524468208248 0.39447403554309651 0.0023462045669787822 0.004462369913294701 0.0034974375699330642 0.0027736443951788823 0.41659823342102786 0.0049703018907793816 0.22059072281115025 0.20127343802051209 0.0029147792523603849 0.0016251397595978068 0.0034884226941868223 0.0022898969620505959 0.003510280841871626 0.20904209897494225 0.0014413363803824067 0.20745234479241323 0.20183349189555655 0.7926612852517545 0.79187949372267108 0.0057238721706504682 0.99122112078735936 0.79118920734040288 0.0039121711861406019 0.204053128953229 0.0026475489703011784 0.015156795154438536 0.0012199171476046343 0.0011833324549802723 0.79104849747727157 0.0024048145792777841 0.40073998215474071 0.0023376137959291374 0.0076341832842156676 0.0023971193698615399 0.0063580819816224576 0.0073254256409567139 0.0018026015567816495 0.0013352791189201823 0.20356278486921975 0.0027545417439288362 0.0027437043400676238 0.0017242077900964754 0.0043649546061229668 0.61195588714229077 0.010265667580085657 0.98906825152075728 0.79114890340878896 0.0025003372555512772 0.0020312931326508677 0.99664208023766743 0.0026938941186261155 0.00080172871876435731 0.0012996012731138239 0.0017790957724232264 0.40508804844444601 0.0027329300471320224 0.0077325212999282316 0.0024281400052987255 0.0024458116875444294 0.99607626128228943 0.40509432465011741 0.015812662996685697 0.40718384809864699 0.0042809319057187135 0.80869522040387487 0.0015511750263876992 0.0050940361443398315 0.0024719427626496665 0.0025586046651711707 0.0018127467244632646 0.20579887025495011 0.0054397769864152302 0.0010698911581913141 0.0027432054463780633 0.0046532227268549402 0.0071011886797338825 0.0057425605255095654 0.0060467528603470235 0.0024103817425652654 0.0074740117354873212 0.0012976462833759975 0.0059435556638674919 0.79914879980294107 0.00606947042422712 0.21638811000550315 0.0036278479055258522 0.0010496373525191534 0.0024419619342415243 0.21306839464568214 0.0043285786016982195 0.2241392382396083 0.0046397064951490454 0.21603982834679952 0.99500119929768704;0.50512613909898774 0.1407070558059447 0.25283419987787314 0.12460182843642197 0.37504291209653751 0.50451706095539794 0.36569274652768274 0.0032488019670028827 0.12582834931794756 0.62511715534419166 0.13303653200912857 0.15007550487094581 0.62670361885693116 0.12900493406401009 0.26467871082403382 0.0029753719865492434 0.002708062296717838 0.75977624577533387 0.13921879807880375 0.0026241432090512518 0.0029432586699230509 0.0061624934737653566 0.0015777792455251582 0.0037363188399740623 0.38553318510372458 0.0018932896220055064 0.37751877022812547 0.25100721869879045 0.39018149675202979 0.12758244590627599 0.50040006434597917 0.37112920985391595 0.12980454660331966 0.37267513928806278 0.011792672769990149 0.0061390729995052951 0.12913461889316558 0.12898137019028033 0.0074059091804433534 0.0041733434426298142 0.12394520324363754 0.12708112345840578 0.0018490143470345016 0.12975727177290486 0.0099747691029604575 0.14685461179855783 0.1390265844095811 0.0024070335760223915 0.0071229972580401464 0.28227652414528742 0.0018541243237026909 0.0032547842346611964 0.7384227791776119 0.62788147671015815 0.0020284444690310097 0.37818946906953255 0.0021121364060325476 0.99400978606343449 0.12731858641547572 0.24405690980269887 0.48668658040326324 0.12987552192043764 0.75177414683107457 0.005403665820203447 0.0037574197688820155 0.0055165845162625776 0.99358918391349971 0.12407519793711567 0.0030593599670652276 0.12538824152188363 0.0036156659286948815 0.1335010826047936 0.0019817306971815982 0.0062708579567251491 0.12800006475851783 0.49485635098543479 0.1341334374733863 0.13187027168193499 0.87025557939223108 0.0074381578727016097 0.0039413711461456103 0.0014500361276135465 0.0064433987936712888 0.37597098088486108 0.25068659854391362 0.12701283474570138 0.0019287091169449967 0.13129324049721947 0.37465441011218609 0.00099443493189765126 0.86602555177405693 0.12994439763423477 0.0057308795113753686 0.99174449004572707 0.36199573033282428 0.13077159820127288 0.50701989306951833 0.0082402714838221078 0.37750406690984983 0.0038272669210570875 0.62882900465444247 0.0049557326901347671 0.00040225563442008669 0.017616642262975296 0.39213624469280028 0.38103770405689003 0.0072147725572140036 0.0018495242260924063 0.24898999502570157 0.12267345732843485 0.36081893079022775 0.258402955735694 0.001202321804277835 0.00096662828629872819 0.26408946196829952 0.62176241604965354 0.38196073585524781 0.74570950550252113 0.0025905621415084415 0.00416573275607469 0.25549141136403486 0.0032926007063845907 0.12548199545985023 0.0050150220640137449 0.0063818976868034588 0.0018276905514873535 0.00076495942588061859 0.38117961767865904 0.0019184486147299992 0.73150054366072537 0.0026906475134390699 0.36778570893372919 0.0051392684781355431 0.0035396103837371791 0.0053369316433547944 0.13421443682893244 0.0068498723198549428 0.86974346971048888 0.13620048744705568 0.75076976069199575 0.15638931611415291 0.0013464717189275695 0.13491023711474848 0.38238374007147152 0.0053147018489187407 0.0058864085372396548 0.13147729545934633 0.0034019376195320973 0.85932950950498344 0.0035928835657937559 0.004828925372067595 0.12574664382638082 0.0020579254748936135 0.25656762383859338 0.62183753680702725 0.0055101909293596178 0.50378097005355815 0.003128412070664951 0.012068136897178774 0.0051811720368498551 0.0022252552576704126 0.9995381811915981 0.74555694594311683 0.9957477870200041 0.49934239612775144 0.13375188925028159 0.0064967722940495179 0.6245598043416174 0.0030935577681464321 0.12560674266815866 0.010848018196429773 0.12800949267460715 0.61939589668022466 0.47856568604134153 0.12691924128507448 0.50625922236257204 0.0023412419210753488 0.12468414435729412 0.13118596966558285 0.0035087245757572422 0.13015856234405948 0.38322235434735996 0.87333821612107609 0.0054222217968613179 0.25585633203893726 0.00771744523363485 0.13294305822378355 0.0047910282241706969 0.12260469626940336 0.13235111251650084 0.38035066728660238 0.24894648823605703 0.51646454703062639 0.26316390060578537 0.0046263080875754937 0.13394947010000133 0.99665935354341506 0.0052210329928486102 0.12553946432069893 0.13295724509972087 0.99216864533130278 0.99485997421127115 0.0049152079058394707 0.003221594309625867 0.49142684981229268 0.50331030048778824 0.74826351053936679 0.0063769021691129609 0.73677381612427084 0.98888234084175775 0.72824046162779288 0.013030140963225958 0.25681779083439094 0.87026382530056412 0.63407543895905705 0.0005409358533297751 0.003569187692020798 0.86390904352498021 0.12980934366666663 0.0078661009173359806 0.12549357697658059 0.0019860754013872003 0.0045184594170168063 0.2621370407017673 0.006709897923854272 0.0033624884222377095 0.62936652924505165 0.37221655568331874 0.1372656078173376 0.0179400362547118 0.0045067757637573085 0.12053726183453652 0.86948390416527654 0.002963143254367041 0.25276353715084371 0.1277361375972888 0.48369827167523416 0.0023012801408693762 0.0039304806490898228 0.2519714814447121 0.13252484006359014 0.019242044163213817 0.499536263959522 0.12641914070316251 0.36881642248349644 0.003466040369471071 0.25095646400759575 0.50600551706853969 0.74439106808781164 0.99560841666850686 0.0092078128040043051 0.1258643428889212 0.013402922163295927 0.26072297006056322 0.26320267218674637 0.12420617983322244 0.0022114231954494783 0.13204170698095438 0.24775209439903406 0.74496355895883526 0.49072257678220343 0.12720559567562753 0.37303485528373576 0.37681737421679024 0.0054820495092246383 0.87014081741304383 0.50355924432381483 0.24745904343577829 0.13607415462710801 0.0036989888504655455 0.12586373023366176 0.98939463124223148 0.0048609551011019204 0.13343215302508091 0.12126756722026986 0.3689036488550973 0.12498883982219022 0.14180323121583688 0.0014243021008424077 0.0062860448481275267 0.3860071964849518 0.38102044672766461 0.13014207314232593 0.0026418123708551108 0.36078342071874991 0.0013154869298230337 0.0093712998537755377 0.9949868647274025 0.12682515273122782 0.25580454240425476 0.50880499008087821 0.00086391791927410255 0.0012846885832265521 0.37853748671997994 0.74322538847965081 0.1337607446504005 0.0011412132879622624 0.0029997236605044742 0.12615378485496173 0.0019283769741142566 0.25196786616958072 0.0089834872375715684 0.0026357510689162698 0.6200284849510288 0.37817506783548926 0.0020719558618573965 0.75025222575147166 0.25658071370527674 0.25601895504425437 0.00053207476554039388 0.60940962496440243 0.0033884153323872788 0.49369927862624163 0.143312577668958 0.12981469343437949 0.11966470465529666 0.13537158070104544 0.0027947948363085799 0.0037831577091227368 0.24923532042198146 0.1285598434261136 0.0057839571042213028 0.50047317197331787 0.12880946767723445 0.98865969981163637 0.24992802906850708 0.13533880223135281 0.0026970803182331127 0.12458486525510956 0.99540190573627207 0.010386636361286197 0.86970768473043347 0.25677436795794528 0.14069849386625349 0.12739569781709903 0.1286239946245443 0.12552219106027235 0.0017734948011125255 0.13223149858419866 0.0065885580095097806 0.0027503777865277774 0.0026647823029722867 0.99327282154971686 0.12565525516118942 0.12813135800789122 0.12483154765788314 0.25388955038393607 0.24895264262944689 0.11544469446825029 0.48126082811863952 0.86417245811048848 0.12347178173839367 0.25396054233804205 0.1334186921432981 0.0026962495282464049 0.86756800958122338 0.62194004370424594 0.12863939986126752 0.13175076769090471 0.12442447064609212 0.87274075922275074 0.0058733089334152538 0.0015893902148277983 0.28197932058619762 0.12723575238200677 0.74459335791099579 0.36994124436983566 0.015059940662449065 0.1280949352276145 0.12241903412648837 0.12769409777588883 0.0029790941080171081 0.25061146364031189 0.012118949526616945 0.36373053039745673 0.012079165835693328 0.0034827703430985626 0.25923960177718869 0.0020391659984500855 0.0064544639357810973 0.25586098467401353 0.38471900558367794 0.74838368151623569 0.00075311755597198284 0.1349353980508434 0.25681060583446597 0.0038579713489679951 0.13525740320614119 0.12828097168945113 0.2507204156440288 0.49334236370214124 0.003610779613412891 0.10969585528076217 0.13638702643388373 0.0050644118301511869 0.12670028405048794 0.25560966368564431 0.0035679521474524618 0.37909878432345595 0.38690487855700223;0.0053337827900933818 0.0016046867199901666 0.0067276014181754627 0.0025515995112547541 0.021359065473433747 0.66557866156824796 0.002070716646333464 0.029552522120110281 0.0086085089995492393 0.0034247809126496664 0.029641885967832907 0.00951647026536891 0.98583810323890797 0.33049662933335733 0.014573583500877134 0.020746512523577385 0.0083818379966503799 0.0160986855749892 0.01679852299241354 0.0026167599635157474 0.017086230164018938 0.01100060623313494 0.0080666407440493047 0.0047217070247681202 0.014047140013694892 0.0057405241963145864 0.0063234256639290668 0.0079168979687665505 0.020383504462830826 0.0047332839846635655 0.67274545760117188 0.33245530194498868 0.0017549500422147323 0.0064905193779090601 0.0026182402763152137 0.65876699051958854 0.0036796081273595014 0.016500206756512308 0.0041840354518514235 0.0081512143322140726 0.013342671343779882 0.0030297109983431054 0.00074814711252053792 0.65025230430481928 0.0058403235941413868 0.0070580143088735071 0.0025757276948178628 0.0046183117196188592 0.024848829326441897 0.33098446775828361 0.0076718532029873745 0.001839386839201828 0.00254709256675914 0.0075965852657024126 0.32844162019287493 0.012454492880610119 0.0083026855958394461 0.98579682041780425 0.0045011281636006583 0.98588669139864415 0.0098828622293977951 0.33568069173970522 0.97821136553008436 0.0077098121767377433 0.0042946413419175126 0.0065581436530084223 0.67899347909931962 0.0055661996824015051 0.012935822550635126 0.0058419977662848115 0.0086683499449851514 0.0010991200732403221 0.0014499835205871031 0.0087143747252849298 0.0048562475493730871 0.33020977930321033 0.64358896277920552 0.0034879126436759061 0.021016519344762664 0.97550131574430787 0.32862077674547491 0.28989468265081825 0.0033506348413808126 0.0058461701340594306 0.68185935848864831 0.014228107925600173 0.0033463692894980081 0.0049966281220488263 0.0067335840858695588 0.0025223942290680521 0.020657478007975197 0.0064912327796388678 0.0045620882067359597 0.005999471406050119 0.0049776399776548675 0.6550950810435231 0.0014539501566616909 0.015582894410164069 0.0074264597303036715 0.002069579458025226 0.0077016640110220752 0.0069667897513812386 0.0032593520096484926 0.66320529220998281 0.006339072457517067 0.98657809918319417 0.024131636177394014 0.32432095030909314 0.026391288144497309 0.002973439853260775 0.98117504319836513 0.68037761348726666 0.001496768576047684 0.002269899538405173 0.012794532648838938 0.33962152069286716 0.023680981905077364 0.0099358154140906374 0.010125792901333731 0.0037359314055889705 0.64896396510967758 0.0032706711068377519 0.0098723624143007838 0.0052533914619351842 0.0023492175957928766 0.0022950300905653174 0.0040238176289832343 0.0027942645460009071 0.0033630720310845021 0.98872239055553024 0.0016189370498155952 0.976954254507447 0.0042819461725312107 0.0087957380608813147 0.64822687856976613 0.96657577137587491 0.0049540476367946826 0.037086174757578937 0.001279734705344566 0.97034994567672817 0.33155367559133697 0.004032981855017782 0.019498629291149816 0.015135415365696656 0.001508827698579174 0.0028514413996939807 0.0049365261813171541 0.0040509924045509186 0.97920154141704541 0.0026485194761038037 0.33456078447651033 0.65307516904664342 0.0047177576781752134 0.012344981645754417 0.0086951146941206224 0.0018050126294069371 0.0063898830308972109 0.0069501174109544879 0.015842777608051525 0.012837350174397105 0.0021876263619679936 0.69093233544644006 0.97031907071256773 0.98342454090682085 0.0071493560699499199 0.33592392454947106 0.9723834700508055 0.0054598026436226054 0.0092390574189462806 0.0040603611565443835 0.94161700689470784 0.63690863487745963 0.95285985642305504 0.009018506302770327 0.017229275448747194 0.0066262652788505565 0.011844466241446172 0.0096150429496999461 0.0032796657372308581 0.0054083608943348025 0.0063599030810565322 0.66206910847393341 0.92104452631871081 0.33071357778955285 0.01625155810622339 0.004356774818056592 0.0074678049763208494 0.0026320999167082377 0.037819475437570998 0.012207445901428866 0.011970690070356126 0.011584651222849844 0.99527681127654033 0.012475553140261041 0.009226826591661446 0.017547629233818952 0.0088961728653463041 0.011284975871880137 0.0027630384602121694 0.0044630294840075418 0.97500527199505793 0.97358994511844066 0.32792323507471094 0.0024321990401512191 0.003468459331890729 0.0061271542746841852 0.0057874563554609348 0.0032099004253379796 0.98768683352564191 0.98016586900068914 0.97355048581740922 0.00426285515257339 0.95739829620339889 0.0086012919969339647 0.017051011494646554 0.0029162808216892425 0.015738500249600551 0.96373340841396971 0.013744979685329161 0.0080198429464599669 0.97916829109855841 0.015034307801479031 0.64469905562978147 0.0030493164195375777 0.32035898908674854 0.0021973238470637049 0.33763550764194977 0.0072409951201023847 0.65568108395249047 0.66576063117153006 0.0086773326770027033 0.34694080959596274 0.67096263622574182 0.0042957635510621327 0.0038489190420011171 0.0059766490928042076 0.0024522023179642926 0.0023348238547189291 0.0021821085561535784 0.96750438139706962 0.6563128597900838 0.0027648579774260801 0.97304856981144483 0.0069454080720824287 0.018089444402246621 0.0035570679369576479 0.96576517380065374 0.65862769179818403 0.97835396573479105 0.010580237212624227 0.0051333224974971919 0.0025973949024532157 0.66695405675111707 0.33012616751833834 0.0055239792682970391 0.0042736855045359817 0.0028298994626391716 0.97237225388219684 0.0025001404161958205 0.013676664465152666 0.014042900734609436 0.0060976563137011379 0.0022510417910101095 0.96701830858326454 0.0019313516265636859 0.97263479279148146 0.99274257330141047 0.0039071368512192915 0.0051277646456814961 0.002200304181453264 0.0080153976685871705 0.98764844080741709 0.0018733139069946488 0.66324190066099931 0.0094718093220313472 0.97474879995769581 0.96312389064781279 0.0032765600714395014 0.0022755016614978557 0.012559820017665341 0.99332416674104484 0.0067498342929470379 0.97779069065584057 0.0029240284088777003 0.0044689517011119641 0.001927679520640331 0.65331336475713531 0.013066005201208673 0.011349196425573933 0.0074512931153132332 0.017598861712967817 0.0070240293879423495 0.0010389840660988997 0.0053958239756946988 0.97824119930510545 0.0035282691580502115 0.0039292293739195093 0.0070653113581513301 0.023626063048617446 0.0028722627711910476 0.016766404120534879 0.0032851581733142048 0.0057138633700271144 0.014989512300924863 0.010584703120146871 0.0031899535851015745 0.98016544337053002 0.66461250669943506 0.96146829402393497 0.0030645378370476569 0.32624548693576838 0.0012692250332819841 0.97213876152893863 0.0081579993445765539 0.0034259496459160487 0.006812433942564115 0.0077094492944394036 0.015062380209005417 0.31513792092648396 0.0078095801628764935 0.002510209314834175 0.0011373686740953138 0.0093078971828959526 0.0015119870884070239 0.028661169219126637 0.001946493554652255 0.005153131205399163 0.003398097044122366 0.0014080829867728132 0.99327197508676612 0.64719758340534217 0.63506093418044118 0.67014397628797406 0.33443023398978611 0.0032760558823873949 0.0095727181683697947 0.0046002880785972313 0.0060681667963201659 0.011157757096992465 0.0041745818051717445 0.98289989287621315 0.0063660848253524523 0.99177077468776853 0.0023155097855434639 0.0036870253444749065 0.0070800774022776467 0.95777605668101007 0.3364093427364378 0.32674171710211453 0.0097714179021999303 0.0069838299830184518 0.0060107535366703164 0.00889396013512893 0.0055947021457715398 0.0068997330642729775 0.97583816264080536 0.33238212328266081 0.33584646329174861 0.0063277103426816732 0.00077164845137988594 0.6358578333859719 0.0093601081627027564 0.0076651093357731582 0.0090226139158378765 0.0035507874814306572 0.97555909236377492 0.020047746834448023 0.0065645024006737388 0.9506924621525018 0.0030973770090295333 0.017854580780468678 0.0052033494058797538 0.002103173731692973 0.32822935519522917 0.0026431786455519053 0.97395976264947537 0.007905890222080901 0.002859261153567791 0.013921192018694847 0.00103793355764059 0.011515464535352845 0.96060924389210411 0.67070646654656607 0.3217990956273466 0.64592922759866145 0.97089175302318775 0.010206067073989477 0.6659084817656773 0.0032686906577974574 0.011715838060601141 0.35976341675389117 0.0027003389409757227 0.0060711860812758395 0.33850960165534605 0.013744176393229481 0.0015181758497610017 0.96861882913085351 0.0016717390053826548 0.0044298365925886235 0.0089945810862202078;0.0030466822164409439 0.0031180512077308214 0.0029235627329904346 0.070480902552069027 0.0019335890407771372 0.10393486618763298 0.0861777827804657 0.73287251845051493 0.093701178317731393 0.085944597849574589 0.915216129820557 0.016963300925650626 0.51872693383508217 0.014465965309928431 0.0050917407394690112 0.4831650320369526 0.069567410118747106 0.57090079501618263 0.43185947712842632 0.0038023905202652199 0.99165909013431586 0.44236734751348711 0.8256900469423436 0.0021800552686492276 0.013599373774300474 0.0019528273308763238 0.0034607595003198436 0.0032575520932539453 0.0008944609080454712 0.0012753405232872584 0.074342980349451943 0.23946644529833697 0.0066932399342328336 0.0025892886944246622 0.0010162258444441831 0.98819388380438022 0.16838157605669007 0.18310279613127528 0.088377397115406847 0.084270138757929991 0.50643152493515087 0.0022527970100099104 0.0036065259631843155 0.17098032008497727 0.4366892419663182 0.169137089839103 0.19405692069307579 0.024106384182221614 0.17509530432458303 0.05256418621557056 0.088288657913583923 0.0023509609265109561 0.16340453030894805 0.0025486076149759526 0.34537565136532439 0.0070444456418962374 0.90686574863750358 0.36232576654490456 0.08537620760124276 0.99678088857411851 0.083383494573495712 0.9384128530810395 0.0050947717600526247 0.24368188856209935 0.46803753124699249 0.088431240592170848 0.089418690924446598 0.0052595001449893854 0.35232086712310129 0.002170215006180812 0.16870995340097331 0.0035119636944437906 0.003440094958169616 0.24363562370279085 0.0051356012630453876 0.17576213665961449 0.33784477046132555 0.090689149205127773 0.085391430971103299 0.8246804061686378 0.011701531062473717 0.090690570685568114 0.0089795141723287182 0.34999477009515922 0.89663407384036242 0.0089738335999193716 0.0053289097441626271 0.009495081746492523 0.092171569512973645 0.0048817271223593056 0.092712006588789045 0.019649359860868618 0.0047326950259955342 0.0023062133456576497 0.0091111412818821475 0.80788707630779411 0.16552127388405011 0.093883769393983962 0.0099640890969060966 0.085200754100669976 0.093673004931462231 0.0045619282470016134 0.096576580214653249 0.32896532444579923 0.0995900676952544 0.71888622523327861 0.83085299238925792 0.16815224472424439 0.24313718341099574 0.0042303650870813315 0.83295207619519585 0.42741833301572824 0.19555953729135186 0.0030513690568209099 0.014989584170072633 0.17918486167876191 0.0034907068668327953 0.0071626364754054849 0.89483630139285664 0.16685693281836494 0.5691089911993874 0.0087682718132062742 0.16651301062061297 0.086632999136466646 0.0015304564110405923 0.56866820822517772 0.0026312734189241193 0.016754870417321391 0.012688655330223609 0.38786372642210237 0.0084994113088434856 0.76111803971053149 0.0012116930134995912 0.12073907873757042 0.7589023353607659 0.16800563227204302 0.0080120076563597251 0.012032193880854802 0.013680723310836203 0.0066674633714437007 0.34798693050480484 0.17058333647149071 0.089914403331363774 0.0081566887420895552 0.0015429844808381469 0.0040578945292196328 0.089333430437489258 0.089879199501309404 0.0088268321277656936 0.0096214435094503885 0.49243783730274082 0.32132473531607847 0.0024542710116084764 0.91453226676645372 0.59470186414533088 0.014451900593461405 0.092422516151695236 0.090746029161981712 0.096854071568646227 0.34468406902394766 0.0018630777011435151 0.094591315224102815 0.26067281037624473 0.10310105175739243 0.0038511505475361026 0.90212072485417028 0.37485232455055784 0.17148655921217992 0.08857497129890736 0.0012548089477207212 0.67538733653296923 0.32893498846790498 0.0030809031847827085 0.0015936881495376212 0.97935908174476993 0.014379131585223026 0.12310156549066083 0.0043607113971126238 0.16628778995153523 0.10124716533080898 0.51709728767735819 0.27971152325390752 0.36404638518996824 0.30764683964578687 0.0064952025164196963 0.023695230651405746 0.0080476737409314013 0.084537410782549768 0.76039836486869683 0.011735849442377211 0.25530814955042347 0.093840835475889853 0.52440356371129571 0.32866896291680636 0.01423093896757985 0.16474189661254476 0.087725781373549389 0.0026947944735078713 0.0017003952430345438 0.0049015769687217221 0.25615216783358374 0.0084939248807663886 0.089972703753513211 0.0039650991242081417 0.09810455084832656 0.0027120456793852028 0.16795613238707097 0.0012979237291611996 0.26625959488126266 0.31980313199299226 0.5028203339645988 0.34727939312423656 0.091754994106703222 0.0062174344611328671 0.17324823265491232 0.22915311103234767 0.41066569652598667 0.17194304549486222 0.25258699746534136 0.14594180484473226 0.80645233875159805 0.0068291093174431003 0.49041834852056226 0.0091134434127729744 0.09205036877768101 0.0019428462299447725 0.82988453709578647 0.0055221174484315835 0.3530674966103301 0.91106118281839932 0.2666107633345583 0.0063339780180003743 0.58853421311866716 0.011697812490261902 0.0014979617240371045 0.083459432333199954 0.0034487099693812093 0.003780616844821518 0.003516076434780799 0.75640383525596289 0.56734461782689638 0.015144109744789483 0.48881830732110504 0.08449608973828962 0.076293461036253396 0.001991406583718732 0.33888601706232047 0.42466181544620107 0.35400381775744594 0.32817846919702509 0.0043619489723684211 0.0040739266257408743 0.25962674344627767 0.5786228756299362 0.013726145572254291 0.0031005282656667884 0.0034366509046486887 0.017013772466659433 0.16416205991590463 0.0031302665982514272 0.18499684532219571 0.006295287137585797 0.089095813124069528 0.0046378901722698256 0.0039537236308103962 0.0051446289557549787 0.67528738031591795 0.0018905759973639525 0.089934173842221882 0.0029399360701821281 0.016247447792946658 0.40871365962381945 0.0026621102006919241 0.73746832156656994 0.73830303570326361 0.15062204879412577 0.79989457555157029 0.021622500366697647 0.0011591905711242413 0.0086066286195551241 0.71500507835055771 0.33026129246198682 0.75037498538860037 0.089351994910566432 0.40834796364444537 0.0070451541772657781 0.52613547100285762 0.16255513080870099 0.090433630086445629 0.0027353997394597733 0.0056925518963401554 0.34626987824065142 0.0041425630682910327 0.16348037701601587 0.74007408400420815 0.0015486592911803459 0.001813445261810481 0.096890375244219631 0.24943626124442969 0.0022984794377836262 0.33478857963311276 0.0018638065684932099 0.011758148314629813 0.0054015299660189735 0.0080139865856191685 0.0051040816007819441 0.66672037592540645 0.50485039480879124 0.0084560189493519643 0.0038271070212953992 0.57376714599698986 0.0091949768330301593 0.44280174119283311 0.090431333144358514 0.0077693178570311244 0.30657370532038691 0.007061023060873672 0.098698680050954293 0.65261628342396083 0.75253516340577464 0.084932749906435318 0.0076362338298799287 0.089835589094636542 0.0019332123650219522 0.0069137399705798538 0.088357406794192905 0.0059171645570769791 0.014988641756245192 0.0040716388723721041 0.74381769892742589 0.17295010765976912 0.28417585078604901 0.40507258914202748 0.15453764327124742 0.0069354743886577488 0.011830995849633475 0.16141470538026145 0.011489492196251028 0.18538635327398392 0.0065106622535006063 0.17746927291009432 0.26507226790097854 0.42832837135521729 0.25663321580317255 0.0031230986302566975 0.005251837521171825 0.037750138263309085 0.66214681647748341 0.23272844436954754 0.0028397164387058667 0.0050999598274726211 0.0079176424146469252 0.087323940476861456 0.5882744799697035 0.087650116917920101 0.2560058742020801 0.17173831200687317 0.096466994981936033 0.17532840151599963 0.0022128305974067771 0.30188936497793312 0.090526841328510715 0.0093078743214757304 0.39965189875296464 0.0024198792936325712 0.0021305845832988567 0.33709810410291868 0.093587476246704923 0.18521863288020496 0.0078254945531502345 0.40714978179993283 0.23867672332722731 0.0024462963609607094 0.089137839063020669 0.17036804002318406 0.99473431873075768 0.49276125164947993 0.0024177081454268843 0.10361504777182991 0.0016065815205206671 0.092124215923678754 0.10953879235436455 0.76755699375497088 0.24382637944546964 0.019801234771025501 0.26073710940759515 0.24300110930018282 0.64602615382241757 0.003489475783863888 0.0031213622486047071 0.25616497200478144 0.16532639274396541 0.25292760128874431 0.097700441558954645 0.094341001959280732 0.0063158481484755762 0.0069060579802832905 0.087293089317041828 0.004091927653064523 0.078671664155939472;0.0065671389313622644 0.0089225267764943411 0.046897971490881998 0.0060127293983975429 0.00827145454322783 0.097777051282279981 0.0056917747570052763 0.91655561135048402 0.0064303169420597221 0.020913454169810195 0.0042271061984382515 0.0075914815879898684 0.0103446695707463 0.005986533305628464 0.95329939938382269 0.0062072818476642836 0.0068797770954724538 0.0059603055103646992 0.0062653513083895593 0.031595115628462567 0.0023424990571088602 0.065665973425880167 0.0023432279566823725 0.0072279374135425381 0.016928428959856554 0.034485047531589659 0.061160799904314424 0.0087843717298398318 0.01521076739466006 0.02490032004915646 0.0052389677814880155 0.0068608909989746406 0.84373188099502727 0.0073924931755843118 0.011015645236369772 0.0070730167330684424 0.0094114275231632419 0.0036394600395487369 0.011172745346717677 0.068651159029516295 0.018855479081884043 0.0081677139282445611 0.002787783759943718 0.0029582780608684964 0.010462271812792663 0.0026263036661155173 0.0017041964013511371 0.066285700155207031 0.048973275444300274 0.063592699712456333 0.015776117221001369 0.0055732031363213896 0.003541488348361284 0.0049765650856068945 0.0024847645409894568 0.0080998135770164181 0.028621224943653656 0.0096206948808439489 0.069160425194572425 0.0044613214333016271 0.083486660074386335 0.006537673486438033 0.82903952886109766 0.0051001937388959213 0.85752462418000808 0.0029025674417338561 0.025247994238268644 0.0029279080968287524 0.02039550976382273 0.015774476952334006 0.0030762201037420958 0.032419171176692498 0.021643126823242528 0.0067721653316924662 0.0095468862311641721 0.10363841258249124 0.011629579626529316 0.060367306890880594 0.0061115504244347568 0.002430138405041052 0.005025296849147585 0.007357684241826719 0.015286771526195397 0.83885130168496802 0.0049139794620930927 0.0067569347608999889 0.0057366445847875838 0.91043286325464134 0.0042376557791729708 0.0080930085702071042 0.14302961662816327 0.0047631382154428876 0.011964596599295598 0.0021987056557297565 0.0092952644775551509 0.035557912437054938 0.0034656791095068321 0.031000286797625815 0.0023383500743638548 0.016558735824580829 0.006538279905900132 0.0071917968125353032 0.048251367443708816 0.018618903091789825 0.0063907125764391748 0.024727654020377271 0.96376827704492452 0.0072931086184427766 0.0091136590492322343 0.0071246225285754557 0.0038736526644062713 0.0075421863599908481 0.14849435887002788 0.76024552388317579 0.054634102097053633 0.018375444151470362 0.90352292009504898 0.021672412331630309 0.0031802283950007203 0.0062071744744406389 0.0028730274014177838 0.0024733327515192895 0.0040844382662853134 0.014952956626696715 0.0074212529074553016 0.0048908294188945893 0.0065917403104672114 0.019941074456418038 0.096776660344875989 0.0082475206814645319 0.0067764843573586853 0.0035430800396100475 0.0091499372176283688 0.0051432137069906516 0.0064995402610111396 0.010646686091758102 0.011159545238206768 0.0084343284636097388 0.014113225159714781 0.011496406748266925 0.0052832705296844938 0.0077361290982032906 0.0068271522980275327 0.14004880977624848 0.0076752726304562587 0.010099252380118997 0.010357232994667079 0.0051188944083164333 0.013320638894743704 0.025627247067644 0.01575117199580147 0.066411284196620304 0.0067435110976553272 0.0057998091458765361 0.0061875220810850848 0.06056138760461275 0.000561720032563697 0.0091998591648603523 0.0085987473625302457 0.046286783691173949 0.0057497859706985965 0.010316162595606923 0.89971828520982622 0.0080772234430738152 0.002246846762208364 0.1047297376401977 0.014893173812669877 0.039881777528628107 0.0096984973372409421 0.011155177914282411 0.0075921913425774619 0.19592964058526899 0.0083661017498410754 0.010924234971646412 0.0056603023042772621 0.0055750432863165668 0.859173071153159 0.83925129400936127 0.012392564565103117 0.14563584158887422 0.046165533404254 0.0078347034606691419 0.0082375328988484025 0.0098762839956390135 0.025921501028181779 0.013247441095914827 0.028034146352658308 0.0056773939912968261 0.002491095167901683 0.89081931378353929 0.005570038117225784 0.0046889118829147331 0.04860953503409559 0.0065939696826296385 0.025637082815602501 0.74850192595516229 0.010056516953330088 0.025044806726376514 0.0064157484868710007 0.0071330562024107813 0.0041658403170652574 0.0095420828637058936 0.83225147898322172 0.034692347370097271 0.015028370887256948 0.83881135242602523 0.0032974499618058082 0.078645975377007432 0.017633097477995154 0.011079200210593594 0.0075527721412519729 0.013611632034825351 0.07103172581662355 0.015819488821975373 0.0085063542876074281 0.0051066097607080771 0.0047137119292800875 0.0098515720947337064 0.018159779346710269 0.016952871744965667 0.021432010366136608 0.87824373513389187 0.02385895686466202 0.88601981043605982 0.087300154913212552 0.005776162926601703 0.0058285768053212743 0.00663037661826476 0.017172508396372202 0.0064095262048134696 0.0064951376985330064 0.016239971107813164 0.0076517547629048385 0.0044136741926720886 0.0051524988053276936 0.048893154881746996 0.0040366232005673557 0.031999652356762276 0.0070018136939694903 0.007438310742758557 0.774965362719512 0.01539673434193267 0.089042523289291131 0.015106042148157552 0.0043516115077215766 0.0069111823932004176 0.92052190598789174 0.017522062380294422 0.0042031304919007929 0.0022628982137192057 0.0065902392114948714 0.0044497598338331078 0.0039041265951555992 0.0021913769484436011 0.75461694457409478 0.011762067160569517 0.0069581686207576101 0.0086233158407968205 0.036275633110706439 0.30551448292411032 0.012436046255295791 0.0096228973637476813 0.0082426616563469595 0.046817525345574616 0.0078230517545954878 0.058291307744895181 0.00667392133976389 0.23193686843716288 0.091758407380274978 0.0047958963183813014 0.019937772496307189 0.030676175459698168 0.012823561787126956 0.0091691823676987982 0.09964430590967803 0.043216996037579357 0.0092082510569709494 0.044763533979899697 0.006065681365539261 0.95979294587740405 0.029109625223277525 0.0061475155575064543 0.0059953648277125795 0.010890445023222157 0.053468115685100973 0.0075404007158570369 0.020500987683329915 0.012040727475934569 0.018966894393729349 0.92845467210670574 0.88542122106070598 0.027185308080619766 0.051408451223669695 0.0043133873323073684 0.0069800691401318169 0.0067955207794817875 0.75467624109499387 0.0037095301456380337 0.020195165758919546 0.94595240738889896 0.011343467780459712 0.011316085832757618 0.01875942897037474 0.010896304490359552 0.0056288408313623509 0.0047541874066814862 0.01256259429232051 0.0086022083903659844 0.0045163755285897748 0.063880382745707398 0.037197967586238341 0.0034126468267725169 0.069595326384482181 0.84073713480293011 0.012418568675860426 0.0067797388142210738 0.0054227282066835105 0.91135682755440206 0.0084661741568171564 0.0042530900207837664 0.0084146166994930795 0.0068143026715630495 0.83318536297359924 0.010059001713235566 0.0028519713316534933 0.89417845862958556 0.075434634051689237 0.0034828611965688028 0.0019713797686364697 0.0031787771133146908 0.01687430828492294 0.0098892672572264678 0.94236554715651477 0.94788913969281507 0.0067769710552741625 0.0066307752707841722 0.011966429698785704 0.95805520755044471 0.01415566636705661 0.0060376465729106319 0.0081068520879691349 0.002383631880659709 0.0076254621680767075 0.0014369287631543371 0.007263575110851129 0.012286093144177465 0.073524883934289145 0.0064436870966684111 0.013006999853530526 0.053132731110572005 0.010153684266654195 0.0035104103829500487 0.73214927704392418 0.0055990614365816465 0.010567397870965323 0.014546333490343257 0.005077550949147182 0.0071791728040984572 0.19869546774238672 0.0087128493235965089 0.0034243260715401355 0.8218162232855083 0.0095835015515136086 0.0045028357470509621 0.0036143935169653807 0.0065936144122938486 0.71434318942417996 0.014541318214852468 0.017676262365804683 0.021357534098524374 0.84863180546471351 0.0048951546731228418 0.88957992026448407 0.017565079475731677 0.0061936862166198309 0.89368961339258668 0.76985464048607444 0.0084069134271237082 0.012793666004737501 0.0028026742268008028 0.0037745801763361488 0.025031511276283187 0.015425746024083885 0.0056155392185724233 0.012504641683158429 0.0060298890373705078 0.021801469602028653 0.0032980841731116406 0.0061384634555624222 0.011455717882647197 0.025566623078635466 0.028787166311960689 0.0088406950854473046 0.62826158791822939 0.018540065110732178 0.0093595579672894978 0.0035295457965747869 0.001769353624081927 0.0095457834684431527 0.0051650095662647815;0.003975053279002598 0.0028490018799660387 0.081712128148155094 0.0020393486746690822 0.0021205785771076166 0.14952621351010248 0.0019923358788724579 0.6372786898157079 0.0020482570899737675 0.15742037013529742 0.001572808475041185 0.002144645512349799 0.0051315478206090739 0.0044066003179776929 0.99792732565205644 0.00150829552745193 0.0057661321705952014 0.0015430739585582643 0.002333844743714922 0.35270179399640506 0.0036586472857412016 0.72580680070629711 0.00090684804735940722 0.0024918922328371037 0.0037530002885122196 0.7047626694940502 0.012398193013677851 0.0018572944111961312 0.0037545396458977492 0.01370892199102396 0.0010915263055525266 0.0039996672098041725 0.73990838490823863 0.0041005211940629005 0.002551888149389084 0.16073022483739527 0.028359024550139625 0.001957926561349846 0.00437437012285408 0.0086028126262772796 0.0025580076900116253 0.0013932878103025954 0.0011836844480122562 0.0029295147615117918 0.00202838338819739 0.001136497330099474 0.061486607076631984 0.0047753891048759834 0.92125156507632422 0.66563832441612703 0.086108097497569092 0.00061501440109205333 0.0019933625469347729 0.0021724216036088958 0.0037183756094411836 0.0015643991103574744 0.024105593240429518 0.0028881561955875108 0.2906187211629041 0.0023794511080685431 0.013857766004269696 0.0019857386674351227 0.0071008500265692682 0.29006165374066573 0.60164775998755338 0.0027641168802964625 0.0063956139371393259 0.0043793205439596385 0.0031904135999746156 0.0027595996420079431 0.0042538891941491562 0.15515616348695949 0.0055078976032515046 0.0031411431632909883 0.0016432733086201811 0.28074539400005932 0.0054809204789638827 0.9327627372729268 0.0014332820067159706 0.0064492604778761372 0.0015815308012384381 0.30248413396537605 0.0020269014089707334 0.16544300852372384 0.0018469578224508932 0.0017534532924336796 0.010912107306247077 0.99821342881874819 0.0042661539009040015 0.0029369024321060297 0.26641030010177852 0.0031295019836343461 0.0054437437807424421 0.0028275375129893517 0.0025750005858772148 0.78588590651597945 0.0016698372902711552 0.0096892166049548836 0.0025182770545152484 0.014474522730660778 0.0019674279237257737 0.0026227277481346845 0.0046961450702324515 0.0022475166192785076 0.0016017925561920561 0.0085020943826350677 0.98956372743763088 0.0058462140587079003 0.0026876738666626043 0.0021803200833766688 0.0015026203033188244 0.0023572985223100592 0.77537650430018923 0.98904707076972542 0.38187891886679876 0.011425359885599761 0.98886076114404275 0.00217815495560345 0.002168216084339663 0.0033975877011699169 0.0039026230008098362 0.0033458541524909345 0.0024434835394741583 0.14308023013581189 0.0085727155260061673 0.0021601014431304544 0.0038624314332074169 0.63587225515563794 0.8468784595164417 0.76374789269545462 0.0012067641305951035 0.0040438413188004403 0.0022296178167735426 0.0013989442848425151 0.0045385752311601635 0.0022589398884261644 0.0027152246686334459 0.0060598904281230076 0.005676971942298421 0.0048311605776305607 0.0035180231885728846 0.0025410979846202443 0.74102992245332888 0.84409895929212331 0.0017499088694773006 0.0029605037556589874 0.0016453517970753851 0.0024090721743166093 0.68266156273575285 0.7180089527360789 0.0032563281635897669 0.0031893217371858022 0.0060314012417954626 0.0022740517169941724 0.0030623869406635014 0.0047591299842389585 0.0037437092697122937 0.002379974182441407 0.002091830519641783 0.99370936145411781 0.0016234093462210474 0.0018033105025375728 0.15220514020968948 0.0023143896866189033 0.011846281338045725 0.043515541618197082 0.0026666883892549212 0.019392977773279023 0.0066367021472350024 0.097832296621231454 0.0027606339379904294 0.77647138546309646 0.0044704560345847424 0.0044517976912273379 0.0026927249423445206 0.0021652376594897792 0.92938363628895859 0.12749093010810891 0.0018709968466420162 0.015348376110553012 0.011798777551167905 0.0040835921393621898 0.0022473271009891809 0.018243168406761583 0.0035005083923606659 0.0029146830258013554 0.0065588822873729469 0.0053155332387717479 0.0015764983403738159 0.9917610528612989 0.0020743056168119507 0.23772489589632623 0.0016158498728340701 0.0032007392321229807 0.012516645152506108 0.3872946074958194 0.0042810378308230377 0.3724274712671154 0.0028873036700403703 0.0014444842279557467 0.0011733179108754362 0.0018497709185377603 0.4653032484550596 0.15275295238506403 0.0034056948180776338 0.015732955189651301 0.0037821401997020629 0.1650564613337237 0.074687983388642923 0.0027474374432732923 0.0018730542711591766 0.0020034879219802131 0.53032307548350821 0.078909146001083799 0.0030493364928833103 0.0040399587859428756 0.0023525963604416108 0.34074439830143832 0.0029576490427786041 0.0029233872000169214 0.0020615513860430612 0.63126748095361107 0.0030600810376215067 0.17039979779644077 0.21544219974490025 0.0033976918985151993 0.002399337481368407 0.0018823838721725658 0.0032711345658438741 0.002135313263515023 0.00094870947530623084 0.0025599039601429297 0.0022633986203222426 0.0020178350089254085 0.0030367232778743137 0.71735160751060068 0.0013184580077415034 0.0045711771935799499 0.0019764610967969187 0.0018196272085729884 0.51601882656817799 0.0026770912074291983 0.18117619141886573 0.16169333553857185 0.0040356314510987812 0.00076383051958828522 0.63796352648418497 0.087618898323643057 0.0017671119211124251 0.0042968302867633264 0.0025263926045799123 0.003959237927791604 0.0056695817082166632 0.086262782506520821 0.98360580179921686 0.15147817153823184 0.0016443261046883869 0.0017136673536446493 0.0051653131616827492 0.78536189115250166 0.0029136390829608517 0.0024617088387464308 0.0020757397920229156 0.073751628769502905 0.078451090274454391 0.77745352604827112 0.0031592458098966721 0.82056430416654069 0.91699982714754968 0.003005526855368112 0.014718597292754114 0.27019223229682776 0.004673862200300246 0.0032077924016935774 0.2715246438709204 0.12766169456388313 0.0032864910978414714 0.97412844367365681 0.0017761662329794832 0.9208781474728005 0.0027827655626952649 0.0022839733975772714 0.0027393365437573844 0.0035119250491458956 0.0026957394774656755 0.0023027768245383411 0.0028193616702942982 0.003074345146243304 0.00222181578173651 0.98778970835295155 0.8359378234689786 0.19816081141060501 0.5801545142214799 0.0024937453139463762 0.0033546571721801369 0.0018092559192621387 0.98475988860225439 0.0073258838360959477 0.0050981812544595917 0.74345772869644833 0.0055689384668192055 0.072051867015018659 0.0076526172273035037 0.24188708386968094 0.0017898342458877094 0.0028697396646670107 0.0029477925132120439 0.0019202280258769941 0.21439693954016095 0.62929926605567343 0.42495771740376248 0.010248869020210691 0.083699433028958437 0.43239672202312868 0.0037781460010363208 0.0016979114161691071 0.0013491982537452115 0.98179863733060868 0.0047784940008858516 0.0059245509300075716 0.002796396446250818 0.0023910175733246608 0.92112033239323943 0.002282269173349131 0.0029310694910851323 0.14114338225198472 0.84178140518076794 0.0033254281725645812 0.0015255062357606036 0.0035054109238039166 0.0042366177636745375 0.0043839391225013544 0.92260229827624352 0.99833852126950062 0.0017852323873729914 0.0018050132012813489 0.28598063774714094 0.77381820126007606 0.0027237779779743657 0.0053461017203975834 0.0040970759739316371 0.078391973747677784 0.0030039416276255873 0.048287892924873704 0.0018597982186507301 0.0027408653153839129 0.90750042138940579 0.0037709786919117375 0.0032250209894473859 0.0061076320331226565 0.00291857763646394 0.003122942674474008 0.6426631294828985 0.0022112291895465368 0.59552957707392917 0.0030574535955463448 0.0025442185886992369 0.002276481698368373 0.98639112030924858 0.0044426358117489444 0.0026782474944101876 0.98604660239841291 0.0024135310989896897 0.0084361136896594947 0.0013235940517594912 0.21083562239392789 0.96301490559439606 0.0024755645063892235 0.76953360641896462 0.0093114363937793331 0.98979086072662481 0.0016985989417645658 0.98886807742266825 0.25631260344409013 0.0024077955305796231 0.98966934596276146 0.78289291364320635 0.0020714354145657007 0.004169053730418028 0.34892194806585541 0.2231270231239588 0.00242231728046569 0.0049110830703044325 0.0029494816380465361 0.0022679212973556774 0.0018950439045543818 0.2101085197662686 0.0017912170112789458 0.0032837518972488925 0.0021678918004686275 0.004762405785886094 0.0082313213640031607 0.0032576462162288958 0.087066577631540021 0.80218845288745277 0.0027533319456906537 0.0010526774602365018 0.22917511881709968 0.0042200302767925529 0.081946641930463276;0.11613228471552718 0.0017106848365217933 0.0010756673625766692 0.0027833294179749166 0.0023203651061390234 0.0021664853415238588 0.001973041961144333 0.0067463531564433861 0.0023945767561353503 0.69893736163201725 0.0053276530290638615 0.11273444593834969 0.008741982981674187 0.072510976713963643 0.74801548590969447 0.0018038751594721212 0.002100237534298376 0.11264615313136042 0.0027007334974624049 0.005336527234335039 0.13520547254440934 0.43929457967426344 0.00077475418182911611 0.11324336796356811 0.0037728794585754253 0.33365269836257661 0.0077206584436573739 0.0014700090789571355 0.0042750072413792499 0.66432162269894679 0.001651312673979293 0.0038219627135389878 0.86744720589865354 0.11514422239141596 0.0061750789526319599 0.52399980925362466 0.27472397711047591 0.0022474995890406765 0.11561535268061643 0.0088201630121928273 0.0033667808281960076 0.0012048280759815759 0.010487618981332963 0.13092694851119951 0.0032631586769252536 0.0014603373271471595 0.74823813342377554 0.0057502774733191415 0.43377165047525523 0.98130120972704005 0.0017070896754851335 0.082373842243684492 0.003982494310208258 0.0044218695850678389 0.0029076862831113447 0.0022036804925418953 0.0055624247185955293 0.0064850026763368747 0.80906890980072366 0.003528871167597725 0.11240067147240293 0.0027291663557281205 0.010369991856957016 0.44380271529524618 0.21377856838716733 0.0032737627187928095 0.0026720496039420952 0.0069925425846515728 0.0036440931625985168 0.004065568573590651 0.0053305764378556225 0.133483343690842 0.0071139288392665888 0.0043865735539155093 0.0028465472795194454 0.30004440414576777 0.0077317993939162106 0.63307927504626194 0.0011392770724416889 0.11317824350481334 0.0020705047304681009 0.68247510078267493 0.0022199995235250001 0.002350645042224651 0.0020948340092348853 0.0018756050389587445 0.54721658270688001 0.9576932760881911 0.04441704733008274 0.0041509866842374442 0.88890876869349411 0.0034298891054312078 0.0056278911955116124 0.25468252494938304 0.0027553359270994617 0.85914044779445831 0.0021338320367686749 0.0086638819018806761 0.0033061025238148973 0.011911630548266685 0.11394426756562497 0.11346591166978987 0.0034338446518141206 0.0094568083625508406 0.0034118749900345674 0.0038065848044944064 0.36462955989368401 0.010082943316532051 0.0039682374957544803 0.0026075203241097099 0.0023755518379270949 0.0030087362397965612 0.021212195105077842 0.28213699470265557 0.0032951371253535536 0.0015257254260886348 0.35263010146119012 0.0034424625640373514 0.0022891921962284274 0.0064673563219168773 0.0058991207659966913 0.20145412088649928 0.11582435012139612 0.44135405550961054 0.29919287999471361 0.012197476087493775 0.007832360806972324 0.2832841116814338 0.97405324122070547 0.48855589328416027 0.0013082951289966052 0.0050719197296507446 0.0030898087443163732 0.001579989104075447 0.0045661343918877023 0.0033914997429200979 0.0031007359019937972 0.008071274700465602 0.43124496206264396 0.0039951029414216311 0.0081735051531674867 0.010691029012525851 0.13728596118878161 0.013819677762873111 0.0015940888175374325 0.0033223651326938952 0.0019909157826283729 0.0021961993579907007 0.70282676764963203 0.63172880984456692 0.0051137651983673895 0.0028166487109218831 0.63994210187253509 0.0025124072580659587 0.0053909994356562104 0.0049879846714429152 0.0030159683918465352 0.0027274118509758578 0.11385569413765093 0.97454557030282918 0.0021930046595196582 0.0033314448324785594 0.11524992873128589 0.0040152868905406662 0.21705778296028855 0.98013549456491245 0.0035790342576915088 0.040869640459550882 0.001777635404127075 0.98452850420731708 0.0038826521454915154 0.99255475909911461 0.17458435180374748 0.006103817749652427 0.0036302337628952063 0.0018404774216391956 0.67589770074878164 0.0099852395911787656 0.0010533009558342302 0.004298108448814955 0.002443917430540384 0.0054687005541322678 0.0035999247325918036 0.64812932976328586 0.0029875598403108212 0.11358950384424565 0.11773557632867541 0.0075683637307748762 0.0021489989959517252 0.33275789062010236 0.0040379636977587677 0.78470485365461284 0.17057003938720916 0.11613643482553318 0.0084615470441949062 0.88757772293436588 0.006036591297697607 0.11597990623544108 0.11333957637187202 0.0016128659073825844 0.0030894669724490743 0.0025199961045791501 0.0030923139185013511 0.0050103143236826372 0.012074334655221727 0.013881747655791017 0.1146909210199169 0.83693466059759669 0.65911678405283702 0.1159706874230808 0.0038342002326114087 0.0024512859630220342 0.98699183822098979 0.59656867108895817 0.11499174975983398 0.0077053196811965119 0.0027478531138327342 0.35163273027942388 0.0038368400508135099 0.0038996828748464824 0.0031382430716007954 0.11477563364961746 0.003132594803137967 0.0015577516510631168 0.0090518590246523277 0.0051871956008491702 0.003122862694567006 0.0021233337002356726 0.0079119159762309332 0.0024892703477266648 0.0012107965010529095 0.0037934944197510739 0.0028200007876093632 0.0019528310323327744 0.0027658015267987925 0.98788418650668441 0.0012382698792288754 0.003827632001528023 0.0021064964534537635 0.0050843693952812366 0.0034191760403919714 0.0025073316157784931 0.69567620271971897 0.22697010830591616 0.11389342716364617 0.0028477290550363455 0.53058235838222267 0.11466339453900387 0.0040692707281967449 0.11497858034897969 0.0027110715415062329 0.0034492230067087433 0.0037340223660489386 0.011528746565887548 0.15486113683596636 0.011385548072719895 0.0016796342273787158 0.001754584944658481 0.11729062317699483 0.97582889587257871 0.0052469466784494092 0.0029453391596142766 0.11280035785512489 0.1121892047776369 0.039691544758629571 0.98008193169632307 0.0031877887727641422 0.015648436683622827 0.023509847062979025 0.0032609780153111207 0.11401227972583851 0.43436693700785778 0.0065200018818414862 0.11564787187452098 0.38566586761643956 0.11155847457417738 0.0031806441784285027 0.99564879533452544 0.0020832772690406957 0.030791988051445427 0.0025291243236810947 0.11396738673893769 0.0030512462787406595 0.0038094557931478692 0.0025000419986280294 0.0026592615971958605 0.0044855011776880633 0.0066006970917060447 0.0016434079537833196 0.23687746515517902 0.91004520573124514 0.031685376502692847 0.0067425073195316087 0.0046143873954938228 0.0042954534366253317 0.0022034256118396533 0.1582005100585957 0.0023886067534717218 0.005620364732644316 0.0071848942459797642 0.29875686603810686 0.0068098019257580855 0.032026183405249334 0.98499867612191161 0.0031986609639095861 0.0022866860142179432 0.0033209007895462612 0.0024123376937185926 0.99155042769071899 0.13162458254143125 0.004072044455422379 0.2164406851776555 0.98064338278978014 0.27013408585264559 0.0052373816295681955 0.001486513099143053 0.0017716480504072047 0.45041207569556696 0.0035766888848866693 0.010360800421647529 0.0024364387198288757 0.0043991912554945545 0.66217945029265568 0.0024397709959762663 0.0040811026251408398 0.0020108148271505244 0.37009745446716247 0.0050516453111968803 0.011336218152089746 0.0049941311857749152 0.0046301858143345453 0.003793096232623278 0.02447322122152136 0.99631864253462776 0.0023038150147409605 0.002296949067290516 0.5288355684283681 0.0084107640993514136 0.0074091871220286704 0.11689893993266011 0.0080685697913341712 0.12540964376439623 0.0030817797001315701 0.88153701799916018 0.0022504317044400282 0.004140486529265147 0.30669102798969644 0.010628147158023026 0.0033885299255691369 0.11699823256418995 0.0040935697207220168 0.0047796394951548386 0.01278727869896646 0.1118995732668089 0.01229348487654415 0.010779606894759359 0.0028398968104581973 0.0027645762349895898 0.34637197084916138 0.11280919748301178 0.0035212549297670768 0.19143084450920167 0.0028631768802053004 0.12056083621582131 0.001622934668930509 0.24734787717125223 0.52035109330446316 0.0030899289661554521 0.6367751551517048 0.0022968516044109613 0.8301620729241932 0.0016634332696781305 0.20097982432301095 0.86974904994303937 0.0023403781530775547 0.30896797095191064 0.011202018471202902 0.002731062992660376 0.066948972580966937 0.52706154082637413 0.42877760951251276 0.11427076354433649 0.0068794256681817094 0.0035344501342204205 0.002889532202780275 0.0016904447256560079 0.36639906558858726 0.0025956880878761752 0.03198420826103883 0.0042835364859003166 0.007699021014180788 0.0012649688033957202 0.0064197420674241079 0.0038839660882034836 0.12409214159165485 0.002831245449264008 0.0012538316224428318 0.89612388765573747 0.11547807585071942 0.1122162570901115;0.42158544812336624 0.0024534635607189924 0.006612164499405518 0.087029364831976902 0.42153325916372902 0.32510075723043447 0.0069112526612834157 0.3399801454469214 0.0042825290871469487 0.0044831805789798153 0.4159804936705177 0.089034782589153677 0.096492778882792576 0.0020871448732670433 0.087946387524957814 0.48798842021205291 0.01100850611996038 0.092206535123861053 0.0026834699043178831 0.0083260231879402728 0.0035434890019878803 0.005046851379076245 0.0033007056752113822 0.33933894858717356 0.0044083310546320087 0.082284603609621657 0.17533646403015285 0.003228573421764466 0.97725209449900785 0.89895855972619199 0.33683568095852662 0.0032672355950192525 0.0038156629017485075 0.018628364580083209 0.52259990661257127 0.011508248985286259 0.0021240067840803804 0.0049707122594404565 0.0078907807369665156 0.0016653095907117131 0.33552412546028504 0.0086334437617381684 0.7301786663680716 0.48165875146033837 0.0092874494673828717 0.0022956060714385855 0.67107960777086706 0.1651682778373175 0.0017955310484867332 0.77297547499625741 0.0046628400613020543 0.17098119970402961 0.0031845492900153876 0.0040933471532717015 0.0073833476688815016 0.26043450592283224 0.16535108080655728 0.0034277454155924644 0.98691311853640706 0.0040900474361880426 0.99084625106898816 0.42141634974874792 0.098037822690227081 0.0024330265930777514 0.004595469859244695 0.0050770799966716644 0.72358523563481925 0.0016810908657127592 0.0059226748857707295 0.097091870447009163 0.0062485377576359654 0.49549399721108744 0.0043125586186649086 0.0040272424933112828 0.17133725328292082 0.0056999284782275244 0.0039696530307634535 0.0096519374352307761 0.17040879718762342 0.024587610119923643 0.092732524747806258 0.0026820742988577849 0.0052502333206835292 0.09267088004569933 0.0057676270222629701 0.021826636560039751 0.0038769654638729878 0.17010895805277917 0.0034361277334701876 0.98461239391773603 0.17228810190116156 0.26012437666428523 0.0025524128460490949 0.0047299664547364789 0.74717735409225938 0.0046388870409806863 0.003386769653181155 0.10437123305882012 0.0049921447810899137 0.0041523659856307132 0.0099653997598516102 0.64330242846351771 0.0039046986604013177 0.0027044794196709509 0.0047581100502461218 0.16955242148563351 0.011416704506417812 0.83204549105374714 0.17173505890841947 0.66839548618155942 0.009891871254942541 0.0090027096462377137 0.0037943938911548514 0.0049390385201981352 0.0045841760474625293 0.0047041421207081012 0.18470968723340137 0.41360220170052681 0.0089835509034421838 0.74119687941576051 0.018428725090696707 0.0041785387390296629 0.72820267628353952 0.009833369536314418 0.73949805804222835 0.0042380050471191684 0.0054837500136024385 0.0058073628103514473 0.08872791118833237 0.40687782412516138 0.1693837287177925 0.86894712215184411 0.83665746081378645 0.0039264241368352371 0.49530506119509393 0.0042035296389577948 0.0057995483731347651 0.095281236801260508 0.0041764802392487005 0.0029432448166013519 0.25723926735930508 0.001188226696539685 0.0048050617812551927 0.032026253433175243 0.0031165155000699315 0.0023507666069083511 0.009594756063204115 0.0034118753144877557 0.012991159146904621 0.17310519671058833 0.17883032100530502 0.005804649681003222 0.211831328417068 0.0026649468845219332 0.0069678180456107268 0.095116902652656626 0.090969019046761898 0.15580954517186191 0.65325921410157994 0.010331331042903333 0.58051396350701945 0.50751997241250679 0.74128562151948785 0.017168925039632368 0.0027471604096788874 0.088684451053293631 0.33045035043429188 0.0058528476755456129 0.25491494329529785 0.006383880844289592 0.091985970951049878 0.68281282301703317 0.0067389343155771853 0.82354895121439498 0.0056415598515866241 0.012719599425293854 0.2594921328072094 0.25805615851850949 0.0059577518718146628 0.41659936508339918 0.085435684863483158 0.65986977761250931 0.34542642132508372 0.083572993352556954 0.0048154662728248365 0.0095553041324942314 0.58054406991288521 0.0032990185295630487 0.17547508644944154 0.73327526523094411 0.6489060893362435 0.25231646721964573 0.83177728282512731 0.0034698670059829782 0.0051457417490443878 0.1734743214184773 0.0058375565805924715 0.089259213680016186 0.25543712490491954 0.0075412799686331933 0.1131548929050704 0.67015484507139478 0.91192191587672633 0.0048635003783762832 0.0022741299264564798 0.00447432682523411 0.011905373770828832 0.014510615313505337 0.2552955482006577 0.18852177416211655 0.01006287531726608 0.020111782145553987 0.089920114963473852 0.5092704592335604 0.021907317705773966 0.0041453139252675122 0.0028849559985906679 0.0039703742229290611 0.0032614065871226249 0.27982173371216212 0.010658864912580057 0.0057794040244468067 0.60259235381939913 0.17564313342360083 0.006645172803800151 0.0025297577336009305 0.0038489165496197325 0.0084644674908863522 0.0038862793624407279 0.0043018806017034068 0.0096563649557262574 0.089591662531835287 0.0037438536414745394 0.25580788888432782 0.014577526922877766 0.17177916798323456 0.0047116270362440576 0.74621456344828541 0.262997877598104 0.0024297383031100413 0.34132708601042455 0.34691055292297307 0.50217328969164887 0.0037337373669744434 0.0052575844259373566 0.0062213918611226634 0.42140702324826607 0.58426905524466355 0.0091224989511931275 0.0089245457449685858 0.75002590695513505 0.0038152087844230097 0.1928019885780537 0.0038465787546218939 0.0030220914368246396 0.34325298479694893 0.0054126270415794393 0.0047594993625846606 0.0028422596451433278 0.005316906739987237 0.1764477527157019 0.32770267727775942 0.098650718079156152 0.0053473159718011951 0.0042294683255329844 0.0022957581130590415 0.89386784361758487 0.0018665859456086494 0.42287851544943456 0.0047415487178052232 0.0086187334978933394 0.014290884222846764 0.41303166623966037 0.012696657430388128 0.0039101900562607391 0.26693062699535286 0.43511757314596861 0.0033363411346803533 0.24892498173523148 0.33966471900417128 0.010470903193356005 0.0043501182080192295 0.25543608506491461 0.0029114396444420835 0.0042526308826940015 0.0020202430326576115 0.0064367859455865756 0.85514484416233238 0.004346680441186925 0.0028145468223740684 0.79204872186689856 0.0031716573468571086 0.0049484842718816747 0.0025940376067177667 0.65097609110020893 0.66369619806295055 0.091050984637327206 0.0047910610070726681 0.913932636906162 0.9636554037824 0.092312679947307824 0.25870735335716355 0.006714095901779525 0.011655334570280304 0.0037239904152621709 0.0066159931329837799 0.0058552421199145653 0.0044147083526083104 0.0035761592040093855 0.70666782979924769 0.5735422521683704 0.30025838199669352 0.0034898833923240275 0.086045353559550244 0.0068598926340985777 0.0022932114331871514 0.010254800451546966 0.085822943819869879 0.0035548266342906765 0.002612841796283519 0.42665448628830083 0.74421642895680329 0.19216123461810253 0.43168457528070825 0.0033828064450158474 0.17876151350352226 0.0037033336495285885 0.0034762789762724472 0.0039795560363046316 0.33105298866533373 0.89597701514260031 0.62988685005299572 0.17110945343965217 0.25691261399323839 0.0083919332284198636 0.003395530580591887 0.011733259414857778 0.0059164974770263444 0.17790350091501791 0.57802850000535044 0.019994631920085711 0.0039218554538164446 0.19367516216006542 0.004093089706787084 0.0050852416213784651 0.748559275557523 0.0028587780701461044 0.0036523641040440437 0.0045213209612400378 0.96450956135687571 0.26149720895696499 0.49546708699072528 0.0093147087220328481 0.49190217131320019 0.0049982853439409615 0.0080574548304092677 0.013357243581138621 0.0034609001975720462 0.25500668324011355 0.56622170309803066 0.0055862001709035174 0.0047159608059370531 0.55142673432112721 0.44285755753239914 0.5658842594446778 0.006269351695539876 0.97503211828442249 0.0033249274458170153 0.013835770607784863 0.62801166435161748 0.014118257615346476 0.39980687760530054 0.0054277051447202129 0.003506619643785128 0.0017831124418924047 0.42700730451731783 0.0040349629718177795 0.888913262193747 0.0032730189258977269 0.0028731306289146307 0.0032924268942940596 0.98140751505622603 0.27451259016338136 0.01153647227601627 0.27261213189455125 0.0053283622021122919 0.089834831704865489 0.095712847814609675 0.0090057704720772382 0.0076563270852116469 0.50607452906995831 0.0061179228267101617 0.0058439626776830783 0.0054432609957488377 0.091029578773763067 0.0056336779195803478 0.004605059996035674 0.0044071063303862236 0.24243073703670534 0.35621756377899993;0.50205075552210832 0.00083427746474284926 0.017059542705494327 0.017859380559400603 0.47590874549096424 0.026686381863029865 0.0045103375622845329 0.4394101298245271 0.0024417626044588511 0.0021391192106593343 0.99509870699441971 0.96150063671958752 0.0080542250695101823 0.0023449690610584952 0.47780653468229356 0.99662813702779973 0.93186168499499922 0.49704161006801129 0.0020308130297783545 0.42103727994934209 0.0017416809420920654 0.011257749551284415 0.0034970961412627219 0.95119851796990518 0.46873041100136903 0.49963478845753778 0.032362463768542113 0.0027400772702318586 0.023773209505820049 0.017843404540167744 0.47694827155926606 0.0077915964827970363 0.0033556439522469776 0.97223598313950155 0.99640370430963598 0.0025732434034264487 0.00077290825561923183 0.005872409350076181 0.98557180554600954 0.00063749535471504452 0.01866339246666654 0.47587841620516746 0.99090156371842708 0.46214674899655955 0.49065425715905986 0.0012663530505273501 0.026178927663184179 0.93797454398059243 0.0020438475036186777 0.9959894778132885 0.02452024578009103 0.015774818746349555 0.00094550144660405177 0.0013736956289844338 0.0030910772667252563 0.010194100207748408 0.0048662630340419732 0.0017458394075909006 0.98640390461223049 0.003563001193721195 0.97757837274112358 0.96268885085469846 0.51684540699533776 0.49297510194032412 0.0010265048428049293 0.013814815587010722 0.019714290810714744 0.015096754722292346 0.96909315484254299 0.023759238233513023 0.95227930578928066 0.015038520195341142 0.011093469125049309 0.00082200019122665954 0.0083603321126329809 0.0015348778484002247 0.0015378516721362323 0.0069721785820912137 0.019795585634661647 0.049039228746452071 0.035220267516431668 0.0010092453723229012 0.82941058365091236 0.014798656618613704 0.015988977865217815 0.011255437083555572 0.0029619081543809174 0.0021960825618844871 0.0012173599822851687 0.018645457919645673 0.017108117490380832 0.0028080025346056375 0.012361118755854736 0.0016812413089029509 0.0083599635724380412 0.001146552743762206 0.0023548440471596382 0.024167860762042817 0.00078643964248430967 0.0072343067619018604 0.94219213037908611 0.49434225852444519 0.0012168748523815646 0.012650381468230918 0.00042985745620862444 0.004895708452501939 0.91147280511179773 0.021333679778286253 0.056211617514488624 0.97885449102736555 0.0022852609213850966 0.9552118755732617 0.0036034541489132236 0.00063426398547385718 0.0022096575430705732 0.0023152279295891049 0.47356217508487597 0.014877828375910594 0.005747072718999287 0.50135442089531257 0.0065125048245256167 0.0044400579056324552 0.026850085654042379 0.499809083031313 0.01672758514226344 0.0088991899271078298 0.018192778258143097 0.97331653200286961 0.002282370507891806 0.48584791359726875 0.95115155192975664 0.01549674997646589 0.48773779702111403 0.0089780722275652862 0.0084508285742972145 0.0012112624265374491 0.98538224657431706 0.011574900819533527 0.001669147215657087 0.001858819526907942 0.0067406840632701697 0.00037376392068364959 0.017958415321394822 0.0022983532684096269 0.0020171942851435029 0.024522987975511855 0.022147020873775018 0.0022067556523616364 0.026847964359323084 0.0075497015484099102 0.011326384248503107 0.0010088125115376989 0.98324869660528602 0.0012215831837656791 0.0012672991388330761 0.013388269121934389 0.014812221905654272 0.023788200191774252 0.51571333706902112 0.0020994987464405404 0.02776486855674621 0.016485113659174825 0.97188598920491509 0.0018452155980478715 0.00056143341132405952 0.0012272831486073851 0.019350387971910223 0.010220090664511119 0.96003224326318237 0.0063030654755830105 0.012550625982888249 0.99028348838594726 0.97837927529243252 0.99524005349487887 0.0055982446974834343 0.50254754740187002 0.96033173538493233 0.0067489771707845703 0.00060151200923017924 0.0070167299928707901 0.011824491324622662 0.99341087987722199 0.011083231178841883 0.017434431995925145 0.0047708786730681126 0.058567565930503045 0.5042797193380627 0.0011773514090541537 0.0028873424125944814 0.95431044502097417 0.96332530338916134 0.008079433026884613 0.52239148419381387 0.010430976054654669 0.037659805335312047 0.0019896919042254528 0.0016285232771364364 0.50362735383230028 0.50314088904071197 0.016338491287666419 0.95893843823562108 0.020025549508100437 0.97037195292809275 0.01120914753753487 0.0010462524081328085 0.011300530990385756 0.95670502302343774 0.98793248720635862 0.0041962581217254947 0.97031998487300575 0.0058347806876629356 0.014913359787886925 0.0031197342806828614 0.012971059454660948 0.48449660796810035 0.0023313463968515904 0.0021879302505032313 0.00081536278631233385 0.0033388351602473671 0.51204643872502864 0.026513577030286763 0.0028669796869526857 0.56654867408578835 0.00073904995941257139 0.0037395330231631491 0.011014077294284547 0.0011607989104270621 0.48110072972584894 0.0021180186815703841 0.0026486457715013422 0.0053428619004035494 0.0037082937518037812 0.016510156589880656 0.007279046364740807 0.47808831380670364 0.017314266171107207 0.050620776657883192 0.98432898392945423 0.003440619449941602 0.0010387914670071557 0.0027482622311079067 0.49728611013581164 0.016426622715420537 0.0085158548458446996 0.95403109899334793 0.98927489715541794 0.0018953400110102566 0.028934741075427449 0.93714293642146584 0.0083860201296920116 0.97160986700338126 0.005211115943471378 0.50482413510917534 0.0012722164668262184 0.0042005425378045863 0.52637492932912777 0.0076964438599567107 0.00055727433310317738 0.00343996567205084 0.022266623129620654 0.47895573237739797 0.0079395029666084992 0.013990816563562611 0.010839390101421563 0.49929649564436512 0.006178559051039003 0.034763968420004975 0.0035317683327831511 0.0063549493431133775 0.0033103770577388898 0.0050625850959082367 0.47639925382178611 0.036359327441552652 0.0080639011033868911 0.0019350490100068229 0.92578688128203956 0.97604385026112439 0.0020867338983640458 0.026512942025292884 0.0059421695757914984 0.0009688262319100297 0.0047708835580476568 0.006831379788487143 0.0015580486199860012 0.0050525298062154955 0.0019551644598488592 0.001531025656072664 0.98343690845764997 0.0012006155023768861 0.007765852661413386 0.047547915824053502 0.0015497581613419698 0.0017927587271709185 0.01066672607583175 0.010421555830867443 0.53336455477968647 0.017562009804768741 0.0041577394604102764 0.98769686156998293 0.49389784888979266 0.0013682401487036316 0.0047645575475930369 0.0047426537327347378 0.47750644856586932 0.0066593743583844818 0.006119522277043701 0.0049058756520559358 0.0019053769013012683 0.0015405807685297823 0.50141114398332287 0.46332170895573155 0.94214778588109804 0.0097362267654352869 0.0036042104921562117 0.0023015524630685363 0.019462886588237416 0.001468991258626544 0.0050315932504847571 0.0012221303251008838 0.015966032301608792 0.021731807623094006 0.9827911270497669 0.0061640767963723848 0.99101781848391468 0.0033373190571160949 0.97321852444701218 0.045630484517978805 0.015861657987948332 0.014080245405564752 0.0054606288979124349 0.058562292923977535 0.022142375627515518 0.0026389913310384591 0.058533891140216482 0.0097803188282588431 0.0022694888115490195 0.96531646517837499 0.004496732017015264 